3358 64
U678403 -0.3156615 0.20974618 -0.017775597 -0.14380507 0.0058231745 0.20533249 0.020382585 0.28180823 -0.071512185 0.42020908 -0.34601176 -0.016000066 -0.32805064 -0.14102955 -0.12423382 -0.35300297 -0.27833775 -0.40034524 -0.22744535 -0.16157594 -0.18325983 0.047065146 0.35567987 0.104463674 0.28774333 0.20166804 0.2480723 -0.37607282 -0.19281092 0.16045146 0.2825923 0.18782419 0.22299168 -0.1543963 0.17738865 -0.14478324 -0.26869363 -0.2597818 -0.24246445 0.18342602 -0.1696299 0.16452897 0.1610103 -0.13480373 -0.27839097 0.11634835 -0.37054262 -0.19453351 0.11271666 0.29975677 0.08785632 -0.27868703 0.3808844 0.27231252 0.23810884 -0.36544162 0.09382808 0.009526437 -0.09958406 -0.039676107 -0.024652924 0.05443967 0.30377108 0.055229694
T388 -0.18231604 0.17817815 0.19844458 0.037016958 -0.123483084 0.46701407 -0.0855508 0.32426015 -0.2169266 0.33833665 -0.34043467 -0.1394779 -0.37970865 0.018836498 -0.20440744 -0.38819513 -0.12548262 -0.36307096 -0.16502225 -0.36908883 -0.17380965 0.29565936 0.3796668 0.13277957 0.1830756 0.21157743 0.31339172 -0.47122023 -0.20921248 0.240459 0.2977803 0.36186165 0.3991586 -0.0093300715 0.1235201 0.05821239 -0.07577016 -0.3910662 -0.2490913 0.15169726 -0.1214669 0.35208145 0.06124971 -0.11728894 -0.24252698 -0.07866535 -0.4903625 -0.23969027 -0.11220416 0.16507985 0.20091769 -0.32726792 0.46381322 0.44939336 0.0335628 -0.16368712 0.12934557 0.18662979 0.11493582 -0.089679465 0.13868746 0.28200477 0.21074966 -0.1702012
T119 -0.3358461 0.30915958 -0.24873227 -0.15172347 -0.07211643 0.13668436 0.0021939029 0.25719073 -0.21229088 0.42018983 -0.35534757 -0.2827796 -0.39078894 0.023363767 -0.018273935 -0.28529623 -0.30279914 -0.452857 -0.18697263 -0.21390095 -0.025971515 0.23388655 0.17734699 0.122594684 0.075373575 0.113857985 -0.019328903 -0.5452964 -0.19064571 0.17404646 0.3232583 -0.044541657 0.21272704 0.034044866 0.12493227 -0.028527267 -0.10893776 -0.29157922 -0.24839681 0.019592721 -0.18281317 0.23174201 0.073880315 -0.28868905 0.12199495 0.17267369 -0.4893516 -0.4402423 0.32020608 0.032689955 -0.1935364 -0.42250216 0.3463177 0.37956673 0.39804637 -0.4399607 0.36102343 0.16261229 -0.051319182 -0.024202418 -0.052259035 0.07422931 0.24897501 0.20227987
U1197541114556768256 -0.12041093 0.0131116165 0.12807757 -0.07103991 -0.031149572 0.1468659 -0.013646141 0.16565245 -0.12533292 0.15907133 -0.18012226 -0.07044451 -0.25106958 -0.005823004 -0.06947506 -0.36478803 -0.059306078 -0.31773928 -0.26075506 -0.098108 -0.12273694 0.16192026 0.25778788 0.26622865 0.28089708 0.26770017 0.27219304 -0.22846463 -0.13115387 0.02646318 0.2765868 0.112000704 0.12620339 -0.14659561 -0.123991355 0.12210802 -0.019981476 -0.27277818 -0.22921889 0.21065545 -0.060792424 0.23629582 0.03548731 -0.25939018 -0.31793308 -0.027796147 -0.33144858 -0.25974604 -0.015834285 0.19346957 -0.030382486 -0.3229354 0.3391851 0.28031448 0.05665023 -0.1430244 0.032202657 0.17510557 -0.116060935 -0.08321525 -0.091142915 0.17146 0.11301143 -0.08754001
T314 -0.11942447 0.2219342 0.111855924 -0.16816048 -0.0016458886 0.19067413 -0.0634923 0.09562959 -0.10242773 0.07650422 -0.19251178 -0.17973751 -0.12716195 0.2052601 -0.015065597 -0.29338658 0.070596166 -0.17984916 0.026422303 -0.0852873 0.023481956 0.2040309 0.17238644 0.14547881 0.11421162 0.03194776 0.11425417 -0.30069664 -0.10878261 -0.13072963 0.15053795 0.1296175 0.15262516 -0.14585194 -0.19876787 0.049802553 -0.0013422217 -0.27844146 -0.20706812 0.1396823 0.03829778 0.29719156 -0.0854087 -0.01359587 -0.17173664 -0.15630554 -0.34664124 -0.23673859 0.02784791 0.18635203 -0.03101998 -0.24031234 0.3456329 0.17866124 0.17966922 -0.034152173 0.12787065 0.17513126 0.10460627 -0.08210384 -0.0626783 -0.030828178 0.17470329 0.022914123
L131073820 -0.4503147 0.34116444 -0.29106754 -0.14217396 0.22786354 0.42872325 -0.2475873 -0.31190607 -0.117103614 -0.2119455 -0.4385789 -0.381834 0.11753583 -0.06866283 -0.1735344 -0.37511697 0.41801053 -0.2457899 0.26920253 0.21755946 -0.43600473 -0.21379052 -0.013208237 -0.22430274 -0.16446011 0.3097774 0.3983099 0.0068843765 -0.14838228 -0.31111562 -0.02511924 -0.3948254 -0.31586233 -0.4463923 -0.40063477 0.29378164 -0.37177634 -0.41916245 -0.24432297 0.43398055 -0.05617136 0.13815822 -0.17936252 -0.07703533 -0.44120908 0.24104254 -0.05481381 -0.3941828 0.30742306 0.00031518505 -0.34591755 -0.33599618 0.38722295 0.37025702 0.2323689 -0.43208143 -0.3855366 0.1828971 0.24289566 -0.15001127 -0.21190512 -0.29945135 0.07966332 0.36917153
U431272868 -0.4840316 0.31590742 -0.33425203 -0.31785396 0.117212504 0.4098276 -0.22347233 -0.03159012 0.09147075 -0.20645514 -0.45544714 -0.14502206 0.1441294 -0.095896795 -0.107578255 -0.34768733 0.38775545 -0.1731146 0.25758085 0.11246951 -0.40088367 -0.19741094 -0.114820674 -0.12150959 -0.13304259 0.1996644 0.39896685 0.14222616 -0.06767108 -0.34311926 0.07245423 -0.26298317 -0.025418023 -0.50631887 -0.37047443 0.25068972 -0.2561033 -0.5128486 -0.24302585 0.26991054 -0.16847755 0.27663228 -0.13126107 0.051713828 -0.42271695 0.30021057 -0.25993094 -0.32401732 0.32969674 0.22121352 -0.29355472 -0.2392755 0.14987428 0.14551912 0.16772038 -0.44981113 -0.2704114 -0.056385465 0.1488817 -0.19001794 -0.36422378 -0.2708473 0.21060386 0.25162047
T242 -0.026437767 -0.07390752 -0.036634143 -0.09899303 0.11094537 -0.0998989 0.13845035 0.0046496713 0.21228659 0.08595865 -0.10697717 -0.1828497 -0.09321765 0.044976775 0.20404688 -0.2177714 0.06670383 -0.018158665 0.04588588 -0.13818379 -0.15607162 -0.0984489 0.18512501 0.24397454 0.16410764 0.21734942 0.21754578 0.05970158 -0.017693458 0.03072902 0.1688104 -0.06790893 -0.012135787 -0.11021921 0.0025387881 -0.08518543 -0.044971425 -0.258812 0.20155282 0.14249644 -0.04172928 0.14373142 0.04436225 0.029277092 -0.15959291 0.022619594 -0.07511347 -0.09184502 -0.08614998 0.19427326 -0.08510817 -0.23162428 0.1506386 0.07042358 -0.07376572 -0.19585949 -0.048010923 0.066045284 -0.19506368 -0.0026891124 -0.10178034 0.08865693 0.12582225 -0.048004765
U1381761170286145537 -0.28185335 0.10045367 -0.21997005 -0.37117776 0.04875139 0.24099703 -0.015951242 -0.054557387 0.38633326 0.3718517 -0.09059388 0.24170338 -0.1959789 0.2945828 0.2670858 0.06130646 0.0816228 -0.033896625 0.26185882 0.27053434 -0.4412554 0.07622745 0.13652487 0.006586873 0.27280912 0.3686106 0.113541365 -0.03183755 -0.07173726 0.19987817 0.28049135 -0.0113603845 -0.21156532 -0.09863842 -0.16754846 0.25524688 -0.055109378 -0.34513956 0.33795214 -0.018934378 -0.07550869 -0.11352431 0.2436306 0.037773997 -0.24360152 0.118622705 0.037845626 0.25700623 0.18942268 0.43135706 -0.052926827 -0.08582738 -0.032762196 -0.06974753 0.13773413 -0.37228286 -0.1242155 -0.194765 -0.15818806 0.26554972 -0.24935083 -0.1922297 0.36908713 0.13221417
L1437340984048852994 -0.3424697 -0.13277982 -0.18484867 -0.13649115 -0.10758608 0.07229099 0.11417584 0.14410521 0.04901973 0.12464422 -0.1021256 0.15657067 -0.06736286 0.09658937 0.26276353 -0.1967439 0.107108735 -0.1439823 0.25204295 0.15777138 -0.23087028 0.13815607 -0.03910768 -0.061558276 0.17692037 0.2358756 0.24124674 -0.10105438 0.14348944 -0.12151995 0.25705734 -0.26870725 -0.13729985 -0.32092428 -0.2755271 0.15697536 -0.19557409 -0.35535514 0.19602482 0.14878643 0.05380266 -0.07581243 0.060301017 0.019442737 -0.110122114 -0.15771872 -0.24173844 0.18489516 0.109930135 0.17240156 -0.13508148 -0.20420648 0.10779521 -0.061112482 -0.16227911 -0.25176686 -0.23316675 0.040791262 -0.1519806 0.110711165 -0.23349495 -0.1624777 0.24145167 0.14798352
U15193541 -0.4524286 -0.0357316 -0.14265807 -0.2046543 0.044171993 0.2218422 0.07811774 -0.08155258 0.07358621 0.17426749 -0.18884422 0.10511281 -0.118987225 -0.05321438 0.2520651 -0.1195848 0.009615909 -0.25794032 0.067434184 0.2413585 -0.26085013 0.09637053 0.12073346 0.13002524 0.073045574 0.17793243 0.22925788 -0.19292937 0.06957803 -0.028478647 0.32195392 -0.080548115 0.08984983 -0.08793199 -0.13363421 0.15405238 -0.18644607 -0.161889 0.16603605 0.1055907 -0.1802848 -0.13938266 0.2129728 0.10328143 -0.18548714 -0.10250909 -0.20269518 0.1974173 0.0104268575 0.26161698 -0.050416157 -0.23913191 0.10412474 -0.033728313 0.061244402 -0.2605744 -0.16197051 -0.009451022 -0.028638486 0.21186127 -0.08576094 -0.17267829 0.17780568 0.17146952
T81 -0.68940777 0.028223854 0.014274951 -0.40005556 0.273216 0.5193546 0.13743767 0.24551728 0.116543144 -0.024964819 -0.5441724 -0.3056141 -0.41124222 -0.27386576 0.33700335 -0.37722605 -0.22986463 -0.31339693 -0.019899627 0.13358307 -0.59670293 0.296974 0.29096913 0.40591305 -0.08718959 0.24975604 0.06917212 -0.3789635 0.09566428 0.15026009 0.32495 0.13802691 0.20014684 0.07089669 0.023519097 0.32778546 -0.21413574 -0.032043517 0.1256736 -0.048045717 -0.10435248 -0.09046305 0.5107095 0.23305449 -0.13860685 -0.3327962 -0.25234562 0.2445767 0.105372764 0.3563406 -0.05101021 -0.27322775 0.056770626 -0.1583328 0.037371423 0.06733367 0.24018946 0.0018349038 -0.13171504 0.31454268 -0.308985 -0.17839259 0.22771719 -0.042820666
T410 -0.24096982 0.12706031 0.22216621 -0.15653887 0.10575227 0.16192047 0.15381002 0.043868985 -0.2474476 0.19695635 -0.2174654 0.21306077 -0.22047602 -0.1956866 0.05316912 -0.1209163 -0.15847106 -0.3060747 -0.043892574 -0.007372393 -0.20264654 0.09796122 0.09313925 0.18935743 0.21455123 0.24860874 0.2970703 -0.26176366 0.23332144 0.40311345 0.31507355 0.111928284 0.3083913 -0.16672418 0.26137578 -0.101542264 -0.15975027 -0.24752034 -0.28778338 0.14620948 -0.06770311 -0.058068294 0.098274015 -0.256099 -0.1639645 0.12328533 -0.3476531 -0.14176282 -0.36322033 0.23383383 -0.014578412 -0.37855446 0.42282224 0.3054316 0.124942064 -0.32293165 -0.37827033 -0.016025553 -0.030306488 0.11163727 0.019698856 0.1502622 -0.03699216 -0.022340786
T199 -0.089060396 0.19779275 0.21511115 -0.09244962 -0.1907837 0.053106092 0.014453222 -0.08896984 -0.1466325 0.1809081 -0.2000307 0.0073532644 -0.27376005 -0.1293747 -0.046714876 0.028269947 0.24219127 -0.085317746 0.14795338 -0.050906967 -0.1472476 0.11150227 0.2111976 0.14156343 0.028180173 -0.02283089 0.098278195 -0.31132057 0.019265655 -0.052460175 0.04725462 -0.13223982 0.011621057 -0.14728346 -0.14371338 0.064445004 0.0478788 -0.21985225 -0.1644076 0.009652097 0.0022169875 -0.099210046 -0.12558971 0.066310756 -0.039588038 -0.1264394 -0.30268005 -0.17403582 -0.2683766 0.21260999 -0.060190085 -0.14595193 0.156051 0.052307125 0.24490191 -0.15067326 -0.022331692 0.13033466 0.2623826 -0.058586836 0.024593698 0.15924814 -0.040028453 0.16133933
T315 -0.21797471 0.12705788 0.29296693 -0.13424717 0.07996666 0.021118104 0.13937011 0.04869148 -0.15434864 0.27835628 -0.15743005 0.24391378 -0.15565984 -0.20624253 0.03562809 -0.1803778 -0.17947654 -0.24129173 -0.054330483 0.029754827 -0.17287071 -0.05878459 0.13461988 0.18220717 0.26334342 0.33693564 0.2310881 -0.08836974 0.3054499 0.26145625 0.35174173 0.031688433 0.17052001 -0.07768086 0.18008628 -0.30383024 -0.17532924 -0.15483043 -0.31476966 0.21630481 -0.29334256 -0.0013095067 0.13908052 -0.19687897 -0.28409103 0.11805256 -0.31105146 -0.13737226 -0.24870485 0.13848495 -0.046336643 -0.22955927 0.3640541 0.34519282 0.036593154 -0.26186746 -0.386261 0.066180624 -0.07099553 0.05719117 0.019636642 -0.005106096 0.01875942 0.087589405
T526 0.009179584 0.14813857 0.13637947 -0.16098487 0.19111197 -0.1407169 0.16036037 -0.076725475 0.06847715 0.2973727 -0.13700068 0.11713641 -0.09504291 -0.2379694 0.15590456 -0.08451473 -0.07802486 -0.19081151 -0.103825435 -0.076271966 -0.26664698 -0.0435958 0.083449535 0.18804371 0.26545677 0.29207572 0.19858134 -0.028247552 0.27200407 0.13803196 0.37589714 -0.019276246 0.15770224 -0.105389185 0.05502458 -0.31598696 -0.08703107 -0.14026468 -0.12349687 0.14540519 -0.048641372 0.03781942 0.10363901 -0.20310609 -0.1640271 0.010186138 -0.34786087 -0.21729386 -0.17303278 0.1863198 -0.24309267 -0.14633848 0.44798562 0.18285546 -0.039336227 -0.24521768 -0.268719 -0.012641865 -0.15824747 -0.0102732815 -0.21138968 0.016516197 0.015685992 -0.06485172
T148 -0.09778154 0.02352304 0.19170614 -0.13052471 0.051872373 -0.038193595 0.24738047 -0.11598165 -0.19430672 0.11400199 -0.16830774 0.21441242 -0.10177876 -0.031859938 0.17278072 -0.06703447 -0.21740696 -0.18319978 -0.062676206 0.06767034 -0.111419044 0.013191518 0.023390094 0.19899678 0.2944984 0.2690176 0.10535623 -0.044036727 0.3637753 0.3829405 0.29427403 -0.02948282 0.1347413 -0.10820762 0.17679495 -0.16799337 -0.17382313 -0.26507786 -0.24633008 0.18601432 -0.15189116 -0.11209596 0.046167143 -0.2431235 -0.23593718 0.18956903 -0.26727846 -0.015416197 -0.17810923 0.17552659 -0.19289066 -0.31290963 0.46491838 0.3929138 0.11532692 -0.20702638 -0.43415123 0.071458176 -0.030656572 0.073569424 -0.041962143 0.04547985 0.11092978 -0.009722272
T427 -0.17481859 0.123579465 0.1821826 -0.16036265 0.106022045 -0.14830208 0.27883825 -0.04641736 -0.08702336 0.20196454 -0.19013621 0.27510613 -0.017086916 -0.26833618 0.22829321 -0.0625714 -0.27321646 -0.12985496 -0.024100212 0.03890938 -0.1554271 -0.124557056 -0.019414777 0.2016156 0.23646328 0.31776685 0.24712588 -0.010005055 0.36506647 0.35124147 0.33978614 -0.05061603 0.13381058 -0.16346405 0.15934685 -0.3352756 -0.18330611 -0.23779947 -0.17354706 0.3049386 -0.24653476 -0.0072842287 0.1688196 -0.13749976 -0.19892716 0.14298116 -0.33242917 -0.0064498773 -0.26476836 0.15875617 -0.24251518 -0.2526222 0.38127 0.30485773 0.03519388 -0.30109638 -0.38704258 -0.08292695 -0.09664178 0.03240128 -0.15490547 -0.0527362 -0.060920466 0.14709996
T392 -0.24020213 0.24099842 0.1009113 -0.23819274 0.17373179 -0.12687679 0.26334757 -0.19428521 0.0965978 0.19379602 -0.13274042 0.26074773 -0.060592234 -0.30503458 0.3447467 -0.036942404 -0.19022954 -0.1799418 -0.097270496 0.22360396 -0.17531016 -0.18789895 0.14544204 0.14677885 0.20946302 0.32113817 0.19815277 -0.17371504 0.32085958 0.25814882 0.3959725 -0.04002051 0.07727552 -0.20323962 0.11117779 -0.38706014 -0.1577423 -0.2745901 -0.27955437 0.27536163 -0.12649596 -0.12267223 0.26576155 -0.2595691 -0.2603166 0.32276666 -0.24583898 -0.03544341 -0.27970785 0.19470859 -0.22184113 -0.2722215 0.4183882 0.30855414 0.007086984 -0.43740487 -0.30591264 -0.0072016236 -0.16711964 0.10229288 -0.18012032 -0.05224426 0.01697882 0.09268538
U1450021546089750530 0.062093187 0.33150756 -0.20459148 -0.35503453 -0.0856161 -0.212919 0.05499415 -0.1981998 0.35021463 0.3015455 -0.39735487 -0.14327973 0.0881215 -0.054072652 0.3739667 -0.05904435 0.093382336 -0.14952801 -0.007919342 -0.0040300107 -0.16566707 -0.095527954 0.101727486 0.20228392 0.18730648 0.23114058 0.21950108 -0.10089639 0.14220458 -0.17659728 0.18356241 0.028232547 0.1467624 -0.39004335 0.06396693 -0.22971429 0.11040838 -0.22980525 -0.13849194 0.3178771 0.030515088 0.11542802 0.3132808 -0.12671717 -0.17540024 0.2704191 -0.22360581 -0.27807945 0.044955634 0.20054519 -0.24761157 -0.10286867 0.39630228 0.0056767277 -0.18059044 -0.41072664 -0.1450006 -0.13951592 -0.19863757 -0.092343464 -0.21393035 0.20598495 0.1391555 0.11070384
T368 -0.08697725 0.35205355 0.017356027 -0.07543209 0.20463441 -0.15006846 0.3010166 -0.24679022 -0.12682581 0.17167655 -0.1575652 0.12308436 0.05588905 -0.09576729 0.33201593 -0.11008694 -0.052556496 -0.2650135 -0.17029145 0.19409679 -0.15572505 -0.18637212 0.04689973 0.31992933 0.32639655 0.33727145 0.22674042 -0.10692599 0.32644185 0.272563 0.36899263 0.072399415 0.058413904 -0.2289937 0.07625195 -0.3319695 -0.022103284 -0.14630379 -0.35117924 0.1821027 -0.06856775 -0.020862017 0.30006206 -0.35130993 -0.25048077 0.23611501 -0.19769716 -0.35985026 -0.18109863 0.17136966 -0.38797063 -0.2662417 0.48003036 0.12582637 0.08722954 -0.31455427 -0.33091795 -0.04882598 -0.10129057 0.033097602 -0.2386202 -0.04308715 0.03758409 0.16565397
U1245005825426554887 -0.19552325 0.14093837 -0.017401397 -0.05928136 0.24164821 0.08041248 -0.009153127 0.036404666 0.07895412 0.111289136 -0.23706804 -0.13609138 0.03249615 0.13771857 0.16332884 -0.19790086 -0.0010698333 -0.01632981 -0.009998484 -0.1839905 -0.27020016 -0.18200605 0.26798952 0.22616239 0.18214564 0.25378385 0.14180957 -0.09387372 0.048999008 -0.113700986 0.19063064 0.021317171 0.07635061 -0.1377333 -0.113640554 -0.032506008 0.07040178 -0.29361075 0.016681312 0.1919319 -0.16136919 0.14785731 0.20318267 -0.037436575 -0.28790087 -0.061753333 -0.31113735 -0.24700499 0.08507716 0.22268723 0.07973673 -0.249478 0.34093237 0.18813387 -0.005390071 -0.2729159 0.08129732 0.108215265 0.016397567 0.027865458 -0.25701436 0.055481467 0.15500775 -0.11294918
L1206580458189983744 -0.34942538 0.2698073 -0.08898182 -0.01231235 0.20315294 0.16789767 -0.1130985 -0.13332886 0.028927274 -0.0029135656 -0.3523646 -0.22034763 0.027489878 0.006937914 0.10073489 -0.23251414 0.2735399 -0.039894577 -0.06617795 -0.0636759 -0.3756712 -0.1237165 0.22980344 0.13357133 0.12477489 0.23103091 0.120563164 -0.2305922 0.0053409557 -0.16078536 0.14009169 -0.056030568 -0.16918764 -0.25233102 -0.17416878 0.026311686 -0.12671492 -0.2582595 -0.20749275 0.24942939 -0.07007649 0.16970837 0.1734897 0.04000215 -0.24862017 0.13442644 -0.29161787 -0.2387726 0.09468469 0.12062183 0.026429579 -0.34175834 0.28935704 0.22492956 -0.082839064 -0.37528652 -0.07141678 0.090139806 0.124900594 0.0032888786 -0.13347542 -0.13497122 0.10357171 -0.04824444
T391 -0.1488154 0.37533033 -0.20720744 -0.22166108 -0.077468455 -0.04898744 0.09308563 0.007028739 0.13859993 0.1744387 -0.22159973 0.03952683 -0.006751395 0.122589335 0.29344738 -0.19428352 0.18420766 0.07468891 0.05487819 -0.04402245 -0.41476297 -0.35827246 0.16764529 0.22544092 0.244868 0.37165266 0.004876606 -0.050166868 0.2306602 -0.3084071 0.28478765 -0.02387268 0.046359964 -0.36933577 -0.015430294 -0.0159812 -0.01466525 -0.31665176 -0.09470303 0.40303448 -0.046688855 -0.060356833 0.2621712 -0.049714558 -0.30237538 0.14285676 -0.33373874 -0.057564173 -0.033604745 0.34623954 -0.042186085 -0.22880918 0.37068436 0.18083401 -0.11982248 -0.3633159 -0.00044304525 0.012423882 -0.11156698 -0.07027338 -0.24520771 -0.010650501 0.055990823 -0.18804693
L1270779147787350018 -0.47044355 -0.19002366 0.4101074 0.11773758 -0.12097246 0.07545147 -0.19369087 -0.3226186 -0.23899741 0.3095888 -0.484345 0.2052274 0.01720923 0.3437788 0.32890943 -0.08719968 -0.26690894 -0.49335402 -0.15518321 -0.23849426 -0.4481177 0.2473166 0.3975882 -0.22186817 0.47947207 0.17447592 0.3641554 -0.46156725 0.37535268 0.18409574 0.26635087 -0.15799752 0.24195822 -0.40242738 0.1346133 0.2537361 0.111715235 -0.031000325 -0.23333575 -0.07794994 0.16912171 0.41985482 0.2044386 0.42835355 -0.3324113 -0.08459976 -0.42851874 -0.4621472 0.28740898 0.0028077483 0.018096756 -0.27795094 0.20805286 0.36301908 -0.26038948 -0.17021301 -0.37924317 -0.31698608 -0.3447787 -0.21688533 -0.18266569 0.0049073 -0.079213545 -0.009306044
T248 -0.27288476 0.042608205 -0.07904651 -0.18287113 -0.04336532 0.0377975 -0.17268838 0.086860605 0.030442756 0.37943444 0.05150758 0.09704528 -0.047179382 0.0321544 0.15726623 -0.19752714 -0.18737094 -0.14936145 -0.18631998 -0.040151767 -0.22171839 0.11601506 0.26579556 0.25784284 0.40227792 0.22728969 0.17172538 -0.18404746 -0.067777194 0.15338269 0.08349489 -0.16214442 0.023191333 0.061927103 -0.06637773 -0.08210221 -0.2718395 -0.28613648 0.06437921 0.05535963 0.011944909 0.08240013 0.062641524 -0.008433043 -0.06558341 -0.09213725 -0.03914579 0.08757966 -0.08487862 0.11306273 -0.1215049 -0.15611057 -0.05348282 -0.0059996336 0.2582348 -0.20999391 0.10747963 0.008880919 -0.2564815 0.1328568 -0.11502052 0.10866021 0.2304058 0.16176638
L1376111193027395584 0.17660083 -0.26288325 0.088085085 0.1437937 0.27615252 -0.2877323 0.07233765 -0.21096386 0.1164588 0.042532127 -0.3787037 0.18929142 -0.33342388 -0.30123258 -0.06703884 0.13814914 0.34581614 0.3309333 0.45579034 -0.51889294 -0.4847996 0.42179492 0.4386587 0.4331178 0.04901516 -0.033621423 -0.051249765 0.25759 -0.0815743 0.40891823 0.45646104 -0.008060587 0.10744912 -0.22067061 0.18347949 -0.26103276 0.07607814 0.19906762 0.47318894 0.39382017 -0.43464506 0.46901348 -0.46981058 0.31117207 0.2457083 -0.31159925 0.28224093 0.33240294 0.07381013 0.38295355 -0.49737114 0.09372772 -0.28492585 0.18666923 -0.2230916 0.15983862 -0.47891852 0.27975443 -0.37101814 -0.004038602 -0.5124049 -0.24867 0.47269085 0.44232747
U136417728 0.07942371 -0.1049616 0.24324839 0.052529145 0.4305449 -0.07202244 -0.21783534 0.08226249 0.43840635 0.08612429 -0.23914805 0.22664535 0.3195971 0.06357738 0.252275 -0.23965137 0.35285595 0.33706194 0.32085627 -0.49742118 -0.4622479 0.27610105 0.22779964 0.17036141 0.1311312 -0.2388458 0.22469746 0.018271303 0.18119314 0.20539398 0.3058434 0.090499505 -0.11193226 -0.3597905 -0.18371497 -0.42115143 -0.039761588 0.21950884 0.29163134 0.059374493 -0.19075415 0.4336638 -0.4154797 0.41790104 0.46154076 -0.4347256 0.17317607 0.4613311 0.048665278 0.3323341 -0.4884101 -0.05917602 -0.32114184 0.055298943 -0.009395664 -0.021145454 -0.32641992 -0.19546384 -0.31968924 0.32720813 -0.45709002 -0.48372823 0.24240991 0.250606
L1196017064600899585 -0.31739894 0.30095056 0.38447726 -0.18692963 0.25871915 0.34355018 -0.029506966 -0.25220302 0.477351 0.35010844 -0.4033377 0.27648756 0.305509 -0.1553169 0.0144670345 -0.13508858 -0.13054805 0.24958421 0.36157766 -0.4153643 -0.40630564 0.123676635 -0.18840371 -0.081750296 0.40867648 0.03294882 0.3747104 0.29033527 0.3021233 -0.19425976 0.4104625 0.1578694 -0.34852403 -0.40493742 0.025690615 -0.14342481 0.18183269 -0.3681893 0.13988017 -0.24362183 -0.4413684 0.44354486 -0.26168618 0.471371 0.32186398 -0.31978932 -0.17310907 0.36114845 0.20127998 0.38287663 -0.51911217 -0.3065076 -0.29235828 0.22682655 0.14066917 -0.40818694 0.13609187 -0.305637 -0.43175492 -0.055250194 -0.47446385 -0.2751904 -0.21278049 -0.07794122
T237 -0.26234996 0.08825496 -0.04232824 -0.10858673 -0.059788883 -0.060447488 0.25206906 -0.13446063 0.14460441 0.23219414 -0.15135297 0.19682729 -0.020702848 -0.18166822 0.28581762 0.08476638 -0.0733199 -0.038438883 0.028625095 0.033824634 -0.3912415 -0.06918169 0.09111484 0.14477366 0.2707153 0.28000054 0.038528565 0.04179065 0.133406 0.14279293 0.35791788 -0.13391589 -0.05862607 -0.42013177 0.04466487 -0.28914905 0.051909927 -0.19294493 -0.0164554 0.115488105 -0.17072025 -0.16728073 0.08210728 0.019255513 -0.07715208 0.025991231 -0.18465221 0.30112433 -0.22786434 0.23552932 -0.35603687 -0.28974935 0.26546595 -0.015612426 -0.038691293 -0.35358462 -0.40221766 -0.26957923 -0.2473539 -0.0073046694 -0.34131107 -0.29147157 0.007762719 0.03155215
U2802587613 -0.2093144 0.09761715 -0.0803024 -0.13628477 0.05853299 0.049980134 0.13956447 -0.0159627 0.063373305 0.16060024 -0.21931575 -0.117984876 -0.0904261 -0.1050337 0.11489599 -0.073992305 0.041068155 -0.100445956 0.09031877 -0.08441474 -0.22226022 -0.011150536 0.18183784 0.054735787 0.12657909 0.12922779 0.29528502 -0.09669431 0.016835155 -0.0846533 0.2461391 -0.052066796 -0.008220797 -0.3172164 -0.008978863 -0.030805822 0.08977827 -0.2768019 -0.056693934 -0.03236503 -0.023600042 0.19026893 -0.011164574 0.025222624 -0.092286825 0.011182677 -0.28443447 -0.071193054 -0.024034232 0.2500204 -0.15108955 -0.14506678 0.19872838 0.07598902 -0.10925673 -0.299302 -0.016326966 0.017648967 -0.054249827 -0.07956334 -0.19217303 -0.0068886126 0.2703832 0.008999067
T309 0.11692196 -0.016017875 0.039998982 0.043540377 0.16614273 -0.13448595 0.12916929 0.060572203 0.16682202 0.2766463 -0.13459468 -0.09101486 -0.2120559 0.019010004 0.0786724 -0.10217232 0.08520703 -0.074743025 -0.03783939 -0.18536842 -0.26263332 0.04046367 0.09122138 0.21165867 0.077048294 0.32256547 0.06386593 0.053803854 0.006267875 0.036217935 0.18944329 -0.044492364 0.04420813 0.042092107 -0.08785243 -0.36929873 -0.060249288 -0.18259986 0.042111803 -0.065000385 0.13105927 0.33762002 -0.07480793 0.14362375 0.017015131 -0.028200023 -0.022405943 -0.1619066 -0.26194307 0.09888636 -0.07890885 -0.070412636 0.23305765 0.07056721 -0.050258543 -0.14454271 0.0023289702 0.007309581 -0.20123933 0.17794181 -0.2617044 0.24419983 0.07477298 0.02722458
U1374140628016234498 -0.2330209 0.12858328 0.10887228 -6.268302e-05 -0.07920107 0.28577983 -0.036675278 -0.06656587 -0.028371168 0.073842764 -0.17982626 -0.12144688 -0.16866879 0.24037108 -0.16531672 -0.24440585 -0.17335953 -0.34473115 0.011492068 -0.13904366 0.070107184 0.29336107 0.28763404 0.09471892 0.15541844 0.12665503 0.2477372 -0.48295462 0.037759557 0.09454551 0.30740878 0.16443114 0.24155498 -0.052102197 -0.013675404 0.086542904 0.15496278 -0.17645393 -0.14411041 -0.12745607 -0.031697083 0.24259815 0.13553798 -0.10346721 -0.23390041 -0.13851723 -0.2289848 -0.23618348 -0.1649264 0.00047242988 0.10116329 -0.4012869 0.36792022 0.23475243 0.15673389 -0.2759246 0.13704887 0.04917706 0.12040881 0.014276457 -0.17246798 0.015260186 0.2788773 -0.02421202
T102 -0.017588425 0.052857123 0.2581392 -0.014375185 -0.27495587 0.14059398 -0.24601743 -0.08006784 -0.34323063 0.22665776 -0.045801394 -0.09631666 -0.06825277 0.46896648 -0.11902797 -0.3088778 -0.068846315 -0.1933915 0.14980504 -0.06473792 0.09707119 0.49574754 0.10568197 0.123299345 -0.1491868 0.051622953 0.208889 -0.45175803 0.32954162 -0.032152455 0.17630333 0.37506506 0.1494247 0.09166487 -0.28256577 0.1644913 0.04119977 0.0458366 0.28719163 -0.25364938 -0.4739132 0.12712239 -0.19911517 0.29981217 -0.15112785 -0.48998815 -0.18630031 -0.077990115 -0.0573512 -0.07412692 0.17425357 -0.016197992 0.03804684 0.48578772 0.6385089 -0.17649809 0.16313682 0.23074643 0.32225594 -0.09096339 0.02962852 0.049678173 0.034012146 0.10632496
U1322911262997573634 -0.21304822 -0.041318253 0.057947166 0.024547769 0.059036627 0.12154635 0.042118594 -0.12394785 -0.13351223 0.25464386 -0.2401313 -0.0042984164 -0.11725871 0.010219869 0.038581327 -0.17774977 0.09768178 -0.0413068 0.042514324 -0.03948069 -0.15247609 0.0037109875 -0.0008257036 0.08639866 0.27605397 0.20229909 0.13186984 -0.25310192 0.17459175 0.14559327 0.105384246 -0.09665602 0.07729443 -0.1596735 -0.126184 -0.21331872 -0.063413195 -0.31769675 0.024094602 0.106373474 -0.08061537 0.20940539 -0.06737068 0.13199703 -0.034530997 -0.03381443 -0.21176785 0.013657172 0.12616034 0.102047235 -0.051566023 -0.085653946 0.10391604 0.24661967 0.08655908 -0.18023357 0.0013386827 -0.009794019 0.051089462 -0.011476934 -0.039834023 -0.024453608 0.03920636 0.052837383
L1154236778380873729 -0.40779743 0.05009791 0.080017954 0.029299496 0.04205241 0.0073039043 0.016779661 0.0069947247 -0.010962183 0.16109635 -0.16750646 -0.010635434 -0.032884054 -0.03626332 0.034656573 -0.30494583 -0.15480822 -0.13617739 -0.17471921 -0.11376699 -0.19452979 0.09530377 0.18238086 0.07852047 0.2991225 0.2339732 0.114744276 -0.3646649 0.05114729 0.1831053 0.19728227 0.02003483 0.24890415 -0.11373024 0.052946378 0.12898214 -0.1453293 -0.17069626 -0.22650483 0.09934951 -0.21364 0.20878378 -0.13125908 -0.038776774 -0.19455908 -0.09862777 -0.2629528 -0.07500286 0.096524954 0.24869198 -0.1136124 -0.294057 0.11052878 0.3248427 0.12882002 -0.17642155 -0.0039230837 0.055208374 -0.086590745 0.05043777 -0.17916916 0.07883519 0.09801447 0.02355715
U1007251 -0.35958505 0.34042254 0.18891342 -0.28069073 0.18519375 -0.09144539 0.14050783 -0.16852264 0.23060992 0.09653196 -0.2846158 0.17915763 -0.021328328 0.04459997 0.19791447 -0.3905915 -0.19936459 -0.19527124 -0.18055691 0.19423679 -0.3333112 -0.15910882 0.09721518 0.08648383 0.15877847 0.17892818 0.21097358 -0.49178973 -0.14668748 0.20173532 0.2592847 -0.13030969 0.1044141 -0.01394089 0.17874789 0.00015436189 -0.3295265 -0.17385037 -0.27073345 0.07020383 -0.31756422 0.032372616 -0.030193802 0.017021848 -0.13610394 0.046662197 -0.21166353 0.13408543 0.26050913 0.25491512 -0.16775224 -0.21168089 0.32479003 0.121274374 0.2039343 -0.22415513 0.20310253 0.05172121 -0.23395523 0.08218464 -0.17718302 -0.049813043 0.22874928 0.16875334
T518 -0.024164658 -0.053115338 -0.13716419 -0.20089152 0.092397854 -0.10616723 0.20323172 0.047049638 0.29204518 0.25628278 0.028427506 0.03489197 -0.10925133 -0.03474206 0.18269627 -0.06777993 -0.01681924 -0.13180289 0.017187275 -0.12499093 -0.3742204 -0.0023434064 0.22416827 0.33794466 0.18843572 0.2749179 0.15857148 0.008522851 0.019843735 0.104434825 0.27686673 -0.024849417 0.09025033 -0.11794088 -0.046869025 -0.113712616 -0.086237304 -0.29026747 -0.029633857 0.001494788 -0.09688744 0.18254748 0.21115099 0.057531442 0.01407874 0.008138239 -0.1396562 -0.085307576 -0.066917896 0.21244933 -0.053646028 -0.1310453 0.22876044 0.009221526 -0.03867061 -0.14617261 0.09149847 -0.07822346 -0.28651977 0.17599039 -0.27444223 0.2286492 0.25213012 0.065218024
U1308989220602642433 -0.23968785 -0.12044503 -0.054893106 0.050429992 -0.15156692 0.12949716 0.094143614 0.017827174 0.2886198 0.19200943 0.07821972 0.21136129 -0.18517911 0.089278124 0.22490689 -0.112455405 0.13695312 -0.10141777 0.09753631 0.024385238 -0.21380207 -0.06598523 0.0762341 0.028136436 -0.0010351392 0.22623828 0.18676114 -0.21033536 -0.046563268 0.20267871 0.18297186 -0.16081361 -0.14009352 -0.07811956 -0.1344673 0.1274321 -0.20100905 -0.22543508 0.4163363 -0.02574823 -0.33262852 -0.050706774 0.07421658 0.18756603 -0.09965949 0.13383438 -0.13690163 0.2614721 -0.07775567 0.021947999 0.09549811 -0.14614289 0.112484336 0.1908275 -0.06317016 -0.25766703 -0.16705912 0.02165176 -0.17233413 0.22239418 -0.22423454 -0.085512936 0.12453026 0.023672774
U1071211848949788673 -0.19317222 0.16892652 0.009124653 -0.08977874 -0.1494253 0.036308225 0.13820818 0.050232455 -0.015157975 0.13376771 -0.091572426 -0.09730777 -0.11119796 0.030841704 -0.025543813 -0.18336491 -0.075984426 -0.118545674 -0.005279886 -0.2398659 -0.16257745 0.08401614 0.13017416 0.0811889 0.21391362 0.123348355 0.21274333 -0.17772377 -0.013017729 0.085166015 0.057558082 -0.008066057 0.11392517 -0.088478066 0.059028853 0.0053084195 -0.1393556 -0.11333138 -0.04176983 0.08779094 -0.088979825 0.05696834 -0.059638318 0.090597816 -0.12392811 0.09621396 -0.13323589 -0.06496839 0.03173 0.26629785 -0.13279763 -0.24599808 0.117978185 0.16281478 0.09077554 -0.095251374 0.01643981 0.020329082 -0.018291268 0.17459473 -0.12844768 0.11072077 0.15792687 0.09652407
L1414211638698336258 -0.11395535 0.24772297 0.034464028 -0.04432037 -0.05765524 0.08344589 0.085955955 -0.14150342 0.028971974 0.096462615 -0.06988916 -0.10170933 -0.05378736 0.08427815 0.048813123 -0.15819925 0.0642324 -0.109561846 -0.05254725 -0.1449947 -0.15241669 0.059477348 0.09616198 0.10572203 0.061679706 0.06155878 0.09947548 -0.25296405 -0.0036557848 0.20160152 0.10729883 -0.1333053 0.039072383 -0.028095642 0.12057962 -0.01819724 -0.14596234 -0.07951875 0.049310256 -0.016723963 -0.22646262 0.07028385 -0.19286314 0.07993503 -0.02778383 0.010077701 -0.097097605 0.0026858728 0.08052165 0.093808495 -0.007071328 -0.12162436 0.16029193 0.10682063 0.23169924 -0.031758472 -0.1293905 0.116845146 -0.019375771 0.1602389 -0.07780989 0.09597194 0.13545224 0.08511949
U3238161350 -0.143071 0.30945316 0.007774633 0.042737518 -0.046567727 0.1306665 0.030738425 -0.015924292 -0.14727263 0.09454997 -0.118487045 -0.18568103 -0.13538057 0.10425636 0.07471916 -0.23858827 -0.07376782 -0.13830356 -0.2257892 -0.28997502 -0.23580451 0.11297291 0.18900153 0.15004477 0.11921708 0.15161522 0.11776977 -0.44348434 -0.07745299 0.3521147 0.118486516 -0.1266632 0.25607926 0.12470318 0.34233436 0.12750366 -0.2545063 -0.12084846 -0.16671763 -0.019269858 -0.23909114 0.18646477 -0.22004439 -0.006875748 -0.10600411 0.083457254 -0.17222562 -0.038352616 0.16313234 0.13097467 -0.0708311 -0.33775365 0.18452592 0.30336994 0.24708016 -0.046861723 -0.11947629 0.029593587 -0.1547744 0.17469285 0.050694395 0.10522272 0.20776251 0.09880958
T273 -0.10871311 -0.08351776 -0.04841337 -0.08193192 0.1736065 -0.066012725 0.15271868 -0.06589311 0.29877144 0.19456919 -0.07062716 0.01560229 -0.1416345 -0.0011916173 0.0978343 -0.053032845 -0.0077502076 0.023172818 0.20367976 -0.11279248 -0.3382398 -0.15127386 0.14108458 0.3015447 0.06229208 0.2572915 0.22389896 -0.052681774 -0.053370964 0.114549994 0.2336499 -0.122368686 -0.14786318 -0.1456098 0.028458582 -0.0944769 -0.011275151 -0.18429816 0.24247618 0.11749528 -0.08843762 0.09720124 0.09985121 0.028293472 -0.11147911 -0.011801182 -0.028799955 -0.050315496 -0.00030781375 0.16392362 -0.09091496 -0.082910426 0.25816035 -0.034833282 -0.02307233 -0.269418 0.0807422 -0.14020137 -0.23317187 0.18450159 -0.10411463 0.09056796 0.30308408 0.049429003
L1115740352453935105 0.23324113 0.37473002 -0.2696288 -0.1277904 -0.33868694 0.40166318 -0.22594075 -0.324623 0.32804263 0.4200342 0.0516544 -0.3385789 0.020028183 -0.14776702 -0.29713324 -0.289525 0.25625855 -0.38830763 0.3148572 -0.36749637 -0.403478 -0.096298754 -0.042151153 0.40806484 0.40228903 -0.26432824 0.42795023 -0.44973904 -0.17211044 0.28931597 0.4350803 -0.3117139 0.32099319 -0.38897133 0.21103267 -0.3190737 -0.37147477 -0.42890224 0.31801942 0.08022322 -0.021008033 -0.045628674 -0.03393004 0.33261964 -0.41317645 0.28356686 -0.1306276 0.23613755 0.25606218 0.22486685 0.2973063 0.03553616 0.4279132 -0.017560706 0.35735145 0.2376387 0.18378347 -0.22056726 0.19497067 0.0090900315 -0.18213712 0.35253167 -0.014046118 -0.16903703
U1447555443426013185 0.25423878 0.47626287 -0.29525998 -0.23702742 -0.12093559 0.38747168 0.015564451 -0.28973156 0.105199724 0.3226325 -0.22256927 0.016615648 -0.18231079 0.1828663 -0.3404393 -0.33530596 -0.13698012 -0.17057216 0.103482805 -0.21172309 -0.26117143 0.18159516 0.20905778 0.34483698 0.18104963 -0.23123106 0.40884015 -0.4854473 -0.0035244005 -0.083601445 0.26714867 -0.1174948 0.4140087 -0.2137793 0.12108669 -0.26505 -0.22473255 -0.36674437 -0.039543297 0.13636044 0.092695795 0.13923146 0.12654676 0.23509793 -0.26317686 0.34482282 -0.2831623 0.1747262 0.20410179 0.26402566 0.23868121 -0.23476753 0.34844527 0.20503183 0.35303822 0.21599461 -0.04895435 -0.12658215 0.0074619707 -0.023977857 0.11675902 0.2574614 -0.048951346 0.078154095
T174 -0.12727688 0.14627212 0.14347485 0.040615197 0.018045453 0.34457114 -0.0074379365 -0.03256957 -0.23738416 0.047376234 -0.103967205 -0.012014269 -0.18129082 0.23173979 -0.050412465 -0.20693359 0.046260457 -0.22995767 -0.08101801 -0.09762037 0.1298804 0.21258338 0.222541 0.12705843 0.020188816 0.21827763 0.082317844 -0.17064129 -0.015702834 0.05172008 0.12558138 0.0268201 -0.0203663 -0.055177446 -0.07755402 0.0708071 -0.04575215 -0.15777054 -0.20875111 0.08152198 -0.1741049 0.23637392 -0.12110253 0.011966908 -0.16994104 -0.10121982 -0.25481477 -0.15018655 -0.063309304 0.08828671 0.044496354 -0.19653198 0.25395688 0.21489823 0.21850672 -0.12611046 0.12995392 0.302957 -0.093399085 -0.08370788 0.019524708 0.2588082 0.10069281 0.028681349
L6196793 -0.42193812 0.31940046 -0.1373157 0.22843982 0.1594868 0.45745438 -0.2347377 -0.3964596 0.29716733 -0.01824277 -0.45885488 0.20941031 0.14539157 0.3915799 -0.3239979 0.10276486 0.4052865 -0.13686071 -0.258781 0.2240415 0.19463107 0.44883123 0.2499435 0.44053453 -0.013454308 0.44724935 -0.08319698 -0.52417624 -0.3481428 0.44083032 0.30629298 -0.34469736 -0.293185 -0.3176678 -0.356914 0.2624697 -0.40168664 -0.4771713 -0.34029076 -0.07096163 0.098700136 -0.18335609 -0.40500742 0.3236045 0.010915847 -0.3073827 -0.0746681 0.11752565 0.31452563 0.45986244 0.3476566 0.0479966 0.2075106 0.15071037 0.4392869 0.031752825 -0.391091 0.45854193 0.2685986 0.35150045 -0.41751674 -0.1578529 0.4522017 -0.22135627
T165 -0.04049336 0.059592985 0.2191876 -0.01808168 -0.08983881 0.44221798 0.025249543 0.055692147 -0.012802027 0.26693103 -0.25611636 -0.29184577 -0.1393572 0.23692414 -0.18114787 -0.29397365 0.03450283 -0.3898167 -0.1492675 -0.04323236 0.22343878 0.20387465 0.26469022 0.11956242 0.26608178 0.17574203 0.13519344 -0.3687079 -0.07230993 0.15040176 0.36332685 0.1256981 0.26008508 -0.022454124 0.02677489 0.16260044 -0.00282975 -0.22337593 -0.25840193 0.19713739 -0.21492447 0.018235568 -0.15711647 0.15501678 -0.19964088 -0.04807557 -0.43314698 -0.21000277 0.014498405 0.13316184 0.113307014 -0.38745305 0.26180124 0.18476857 0.056023374 0.09088764 0.21993867 0.2933415 -0.032055862 -0.2917607 0.021221433 0.11286029 0.30563098 -0.13581634
U1244053344043204608 -0.20961568 0.22083674 -0.014931095 -0.16220115 0.013148144 0.11381307 0.06952084 0.13889682 -0.03853723 0.31732303 -0.36381078 -0.17758733 0.19347854 0.31551465 -0.117012374 -0.43536162 0.07704146 -0.19617544 -0.29089943 -0.0017862293 -0.19168054 0.13037188 0.2867829 0.2123508 0.19251025 0.0681821 0.22063364 -0.39485794 -0.07298756 0.018565683 0.5265343 0.027095277 0.23265062 -0.04699492 -0.13131715 -0.15984204 -0.09360349 -0.14980674 -0.08438752 0.22993915 -0.07881276 0.29921654 0.0710368 0.032938465 -0.081523694 -0.06761555 -0.43948364 0.026172135 -0.060774717 0.07039531 0.37008554 -0.08763412 0.45110908 0.27568272 0.07748781 0.007086125 0.09326909 0.16246767 -0.16247632 -0.24656156 -0.06497259 0.14822261 0.17592713 -0.1768692
L1240365908192833539 0.10411341 0.19241351 0.3474032 -0.120806836 -0.31600606 0.35987562 -0.17604934 -0.21392179 0.1171729 -0.23791651 0.1283587 -0.30004722 0.27081236 0.40626496 0.33796567 -0.13592723 0.38402793 0.042021092 0.2702058 -0.31451342 0.28964233 0.1791975 -0.119970955 -0.17611423 -0.21994148 -0.17954195 0.1543256 -0.3263692 0.23359516 0.37295905 0.113775775 -0.19855632 -0.15588349 0.29381967 -0.26641402 -0.26280662 0.17429772 -0.057347946 0.1889816 -0.16692793 0.20946868 -0.11179325 -0.39627936 0.28718528 -0.20816706 -0.3543642 0.02308714 -0.38770398 -0.088588186 -0.2310938 0.092504226 -0.1022431 0.26138344 -0.071128346 0.35880685 0.08126812 -0.11782086 0.44019285 -0.30367658 0.08599538 0.22882393 0.16398804 0.27905217 0.20215803
T44 -0.07270952 0.26107305 0.23261848 -0.044384956 -0.25792173 0.33433533 -0.005550856 -0.20156282 -0.15722361 0.0918762 -0.02563963 -0.10995444 -0.086872905 0.039981473 -0.07062064 -0.09642901 0.13299814 -0.18824768 0.081371024 -0.15001467 0.008109367 0.15597217 0.122447126 0.011637527 -0.016419997 0.017512713 0.12929372 -0.24543914 -0.0801046 -0.003159452 -0.007277051 -0.019535035 -0.074249424 0.018734572 -0.11243529 0.016013615 -0.017338255 0.045666084 0.15802516 0.045776743 -0.17163344 -0.03934404 -0.20898744 0.25927132 -0.08026181 -0.19225098 -0.00591391 -0.10105497 -0.17543964 0.10330498 0.06234746 -0.037495997 -0.031900834 0.04838289 0.21134584 -0.06019088 0.014091576 0.16940612 0.06954019 0.032949913 -0.20685726 0.050789244 -0.060680497 0.13453776
L198594436 -0.11581394 0.12637615 -0.0120264795 -0.06123162 -0.13810186 0.18903878 0.089276806 -0.07981967 0.08010476 0.1786172 -0.024735946 0.01962763 -0.16006006 0.043762382 -0.000633628 -0.10300805 0.10939815 -0.111172296 0.027401933 -0.06674572 -0.04241698 0.16241051 0.09097273 0.21890746 0.000964476 0.070017055 0.039108004 -0.14860862 0.039815065 0.051533405 0.07968673 -0.028124176 -0.11659329 -0.15298843 -0.06027855 -0.09080873 -0.04935302 -0.10722629 0.0585711 0.030519575 -0.09358757 -0.02915141 -0.07732249 0.08501097 -0.05619411 -0.07879149 -0.11334927 -0.029175257 -0.09152665 0.07925976 -0.044385448 -0.118603766 0.16245511 0.108834475 0.12668161 -0.068658724 -0.10070566 0.049622353 -0.08398233 0.022101494 -0.081755795 0.11041697 0.14646956 0.10967891
T341 -0.20049861 0.12488588 0.16407917 -0.099515006 0.0772687 0.21538639 0.12045504 0.013964642 -0.26266736 0.36387855 -0.23323558 0.06757958 -0.2720549 -0.13397169 -0.05996862 -0.29631668 -0.30065438 -0.441015 -0.16926987 -0.10302467 -0.1425369 0.07737483 0.2672981 0.26027474 0.25796115 0.18606043 0.28307366 -0.3722892 -0.035888385 0.31401432 0.3573245 0.24709812 0.29491833 -0.08737716 0.19295292 -0.1326616 -0.11348169 -0.2084144 -0.3386592 0.15764126 -0.2758319 0.11932384 0.059834935 -0.18617071 -0.2593879 -0.040124867 -0.36698115 -0.22176649 -0.3165371 0.21855012 0.1344254 -0.2629645 0.40597484 0.425939 0.07277614 -0.42225647 -0.13848141 0.014989939 0.04925735 -0.13839175 0.07794958 0.20515032 0.16194701 -0.045431025
U1257621715385024512 -0.31603307 0.08425039 0.14981546 -0.03788293 -0.081305206 0.4179467 -0.04393135 0.21773773 -0.23808919 0.23332234 -0.32608762 -0.06827059 -0.40539813 -0.05097537 -0.21191177 -0.43917674 -0.1339548 -0.42890847 -0.28777868 -0.34089664 -0.24291684 0.24713838 0.32692707 0.1563439 0.17277552 0.27034423 0.36816716 -0.4909067 -0.22647725 0.3856101 0.26529935 0.21548183 0.33138412 -0.14003617 -0.010828164 0.28245437 0.033988193 -0.1747161 -0.18163136 0.27418286 -0.16368401 0.23897883 0.11729402 -0.072199345 -0.43726277 -0.28415897 -0.34544683 -0.40634325 0.03162373 0.2293854 0.187952 -0.34977105 0.40882352 0.4726441 -0.038879152 -0.078176364 0.0740041 0.08370797 0.09881653 -0.17437176 0.096434884 0.37770507 0.13659784 -0.19999377
T330 -0.25477925 0.16715863 0.11312458 0.04674362 -0.09719938 0.39523524 -0.0075989305 0.07478206 -0.037283227 0.12259382 -0.16519423 0.12006602 -0.24142398 0.0382568 -0.22098164 -0.21998107 -0.11483188 -0.25707525 -0.1328866 -0.17432271 -0.09489258 0.136285 0.12668748 0.1346967 0.2307689 0.15330465 0.17643109 -0.36177436 -0.107341886 0.21809243 0.25587365 0.123869136 0.19301738 -0.07734451 0.16547932 -0.036600266 -0.047787316 -0.13588315 -0.101128064 0.22941457 -0.11928153 0.2306901 0.03425907 -0.09297125 -0.2999833 -0.14408034 -0.25137955 -0.33297634 -0.12878646 0.28171876 -0.017934008 -0.21000496 0.22064516 0.1994478 0.14129363 -0.17158128 0.078698926 0.16447042 0.10761923 -0.025307111 -0.038896464 0.1463695 0.13524292 -0.043847796
L1306703145612046336 -0.11747855 0.09943464 0.16264918 -0.10936034 -0.22493632 0.16665678 0.113142185 -0.024340333 -0.03284572 0.03278788 -0.10246189 -0.009545343 -0.17444623 -0.000712846 0.0022481978 -0.23458406 0.10125413 -0.14540341 -0.0037412334 -0.042368915 -0.20473202 0.106688276 0.12280066 0.20353116 0.17345887 0.13787071 0.2225653 -0.22309248 -0.085087195 0.19979478 0.1524985 0.050375253 0.07975404 -0.014955452 -0.15449947 0.055191845 -0.019720966 -0.14410959 0.020886382 0.19722971 0.0036065488 -0.0033870568 -0.0065742643 -0.04008718 -0.14687707 -0.0035040914 -0.2129066 -0.0314553 -0.039086934 0.15545765 0.050223865 -0.15575115 0.23772368 0.24382548 0.113674395 -0.19450213 0.020483743 0.09044933 0.014668962 0.025231764 -0.1426285 0.14706086 0.06816834 -0.022005428
U49254950 -0.21771567 0.19205248 0.25252965 -0.16334844 -0.15476954 0.08026265 0.15301886 -0.06486113 0.02848605 0.10127197 -0.16094378 0.05638641 0.10965624 -0.030124487 -0.07704528 -0.19201382 -0.06807768 -0.23311663 -0.048680827 0.058642805 -0.08125499 0.187456 0.15191647 0.11833362 0.25995302 0.25833192 0.06253977 -0.34990025 -0.1422108 0.15004666 0.28185737 0.08681485 0.15769345 0.17482542 -0.023704816 -0.06483871 -0.10494832 -0.10934441 0.011873038 0.18518938 -0.21017274 -0.083178684 -0.069602296 -0.0032134245 -0.112688534 0.05669786 -0.16732737 -0.04164808 -0.18872696 0.19213973 0.057386093 -0.15141812 0.34333488 0.24213608 0.15240504 -0.28832865 -0.0033586305 -0.038073808 -0.053817205 -0.030209996 -0.26047596 0.22456884 0.22622326 -0.17656644
T347 -0.37670308 -0.037207965 -0.005020849 -0.15874709 -0.11089787 -0.16991776 0.36156437 0.12533958 -0.017192774 0.23810215 -0.010502364 0.12864847 -0.008901529 -0.14563802 0.30015856 -0.18117285 -0.048278984 -0.24538535 -0.17140093 -0.024583697 0.14025578 0.15728015 -0.016374689 0.11014413 0.13034308 0.41652516 0.051005907 -0.07332776 -0.03126134 0.32234034 0.13627443 0.082367286 -0.072111696 0.0071444847 -0.20666543 -0.06314588 -0.21775416 -0.46411407 -0.17682278 0.35970837 -0.2364709 -0.05037107 0.14496493 0.0132239675 -0.09849352 0.12286561 -0.18271811 -0.053050037 -0.1907575 0.17368442 0.16079357 -0.28431305 0.13050918 0.4142441 0.06941184 -0.3395733 -0.20458636 0.011043133 -0.07636337 -0.010475602 -0.39420077 -0.07204695 -0.004219774 0.12256069
T506 -0.42188513 -0.08392556 -0.13523325 -0.45382735 0.08376311 -0.061943714 0.18552907 -0.30089122 0.085708834 0.254391 -0.0976581 0.41441953 -0.16792633 -0.3485474 0.19067578 -0.23039335 0.011698642 -0.19664837 -0.23440926 0.28416976 -0.30912024 -0.18629538 -0.10190216 0.28108615 0.1825066 0.38637918 0.3715122 -0.09218605 0.18716559 0.1398057 0.42712814 -0.11146421 -0.14064147 -0.056233175 -0.03664394 -0.24914108 -0.40724075 -0.21797173 0.031544294 0.36723012 -0.23003294 -0.19566053 0.17048118 -0.17011295 -0.39448744 0.22424482 -0.049039062 0.11535045 0.0041723056 0.3349572 -0.18267141 -0.15193641 0.38700178 0.1052221 -0.008960263 -0.4150691 -0.26476792 -0.28616977 -0.34238198 0.037383538 -0.14573228 -0.05992079 0.10961363 0.10632255
T290 -0.15566058 0.08545076 0.0132458 -0.100379154 0.06248912 0.04790593 0.22411384 -0.05563107 -0.0036888574 0.19852541 -0.17072727 0.021076787 -0.15968286 -0.06580847 0.17078632 -0.0986953 -0.056303516 -0.22960219 -0.021760777 0.04320452 -0.17609529 -0.11678956 0.21942244 0.16640274 0.16106421 0.3042366 0.14212286 -0.1394397 -0.0044554444 0.21892019 0.20417255 0.04609098 -0.014758243 -0.09810455 0.10940688 -0.19146991 -0.1479866 -0.13916801 -0.048635066 0.19115253 -0.15593924 0.08707196 0.07459978 -0.16223861 -0.25649646 0.16377635 -0.19972618 -0.046582136 -0.10718218 0.16873425 -0.090504795 -0.25237063 0.23704116 0.20092215 0.020517563 -0.24234743 -0.11047845 -0.07462178 -0.17236264 0.12234253 -0.108201385 0.01825543 0.06440172 -0.0013839501
U779851093412945920 -0.35334858 -0.08330576 -0.05879268 -0.44664598 0.058490984 -0.23093997 0.2862173 -0.019396974 0.22538622 0.21127397 -0.076854035 0.28911185 -0.05970338 -0.16407101 0.43230605 -0.110548295 -0.32169664 -0.21658976 -0.051750783 -0.06634485 -0.32776418 -0.17025301 0.23569992 0.4168876 0.49638245 0.56796557 0.2099303 0.064329624 0.067913935 0.103379734 0.41230547 -0.07118241 -0.08472433 -0.19920285 0.021620397 -0.31159514 -0.17400512 -0.3025986 0.059378874 0.38115615 -0.33040088 -0.11121396 0.3808111 -0.16675375 -0.31395495 0.28475013 -0.21351935 0.20671375 0.05094325 0.43464357 -0.08701599 -0.30035535 0.35945877 0.026695894 -0.03190787 -0.516987 -0.08469861 -0.18302259 -0.3969173 0.037553992 -0.22352003 -0.2945404 0.3020845 -0.022374192
T499 -0.3747663 -0.19644687 -0.11616619 -0.26409867 0.03738501 0.05794964 0.2739725 0.0053632334 0.21606657 0.15583722 -0.08878592 0.4399057 -0.34864888 -0.101312175 0.4405041 -0.04225883 -0.15748097 -0.21723276 -0.09337115 0.17639764 -0.07416139 -0.18569082 0.12877437 0.34817997 0.18596016 0.38971627 0.17917073 -0.05803813 -0.07735704 0.050311092 0.32821772 -0.17497203 -0.29100275 -0.17230856 -0.10742191 -0.23156089 -0.45786864 -0.45237142 0.10368696 0.3674691 -0.4201508 -0.33420563 0.24013641 0.11465424 -0.4657019 0.20519225 -0.03661638 0.2549068 0.05383464 0.42167842 -0.20119208 -0.22370096 0.19964707 0.012863233 -0.07022056 -0.40497556 -0.016908888 -0.17211701 -0.29959244 0.025589837 -0.37501612 -0.12618469 0.00811525 0.021018656
U1422054677290446851 -0.320596 -0.2769125 -0.16022554 -0.051964153 -0.14747298 0.17355609 0.4105349 -0.078875005 0.35159427 0.041651256 0.003442773 0.26182088 -0.2723801 -0.17527255 0.33129224 -0.12444292 -0.054755528 -0.17304967 0.071645044 0.10169843 0.028931336 -0.277735 0.1550259 0.07411354 0.02585112 0.36213794 0.20989992 -0.21474288 -0.07785756 0.17012206 0.33468902 0.070095345 -0.2313766 -0.20939243 0.024916608 -0.08272743 -0.15484782 -0.2743101 0.39490137 0.3571771 -0.29587525 -0.07835378 0.16451928 0.073139735 -0.01374284 0.059458997 -0.0771227 0.14841689 -0.113545254 0.28336465 -0.04639426 -0.13109423 0.1125216 0.269342 -0.22565435 -0.3768587 -0.14658391 -0.050162587 -0.0680667 -0.02724218 -0.4380164 -0.064859055 0.07764872 0.04729838
T496 -0.5126473 0.003124815 -0.35918546 -0.253355 -0.10599958 0.29405198 0.15983056 -0.31054315 0.46762583 0.2585162 0.02600152 0.43461835 -0.263956 0.039731756 0.41935483 0.12654917 0.08743412 -0.10237387 -0.004732989 0.38525394 -0.48905882 -0.22382922 0.187853 0.13633801 0.1447222 0.28224468 0.33763054 -0.18163201 -0.17855266 -0.054000158 0.26721495 -0.14466344 -0.3301646 -0.123287365 -0.1785143 0.1546157 -0.32553038 -0.3248959 0.52613264 0.17762206 -0.277387 -0.30082858 0.4285666 -0.084174775 -0.3381723 -0.08449431 0.060872007 0.3623528 0.16959931 0.283357 0.1850897 -0.1774144 -0.015661195 -0.012228227 -0.006957447 -0.35847196 -0.055705316 -0.29119372 -0.4454036 0.34255943 -0.18379214 0.011990074 0.3061401 0.23592864
U17474951 -0.446682 -0.2246803 -0.1782206 -0.29168347 -0.03409729 0.30778316 0.09468171 -0.045131814 0.3382939 -0.062748596 -0.010550876 0.21911286 -0.3400811 -0.08336865 0.44175366 -0.04450001 -0.15205647 -0.24393259 -0.24267744 0.23833004 -0.4329707 -0.18104394 0.32570085 0.39368245 0.13670686 0.23596348 0.21064448 -0.014808112 -0.17293356 0.20430431 0.46824583 -0.1752164 -0.18598975 -0.19309767 -0.19914664 -0.20663719 -0.030111983 -0.24786893 0.2578269 0.26945207 -0.30160895 -0.126119 0.3367362 -0.20173442 -0.35065365 0.07515188 -0.14395921 0.22785847 0.17713004 0.36623877 0.19157557 -0.25430027 0.089841545 -0.014678363 0.066953264 -0.26618463 -0.14942987 -0.1969967 -0.4017445 0.3237709 -0.15667629 0.10860652 0.35345614 0.13800444
T452 -0.56494343 -0.08126472 -0.35854334 -0.10316766 0.059430808 0.22050644 0.13198107 -0.2100998 0.34781042 0.297817 -0.16306329 0.42885724 -0.18500431 0.013974693 0.3944608 0.08090869 0.19699359 -0.0089253355 0.09296769 0.32024366 -0.33915803 -0.0784325 0.20479217 0.18717955 0.015248509 0.33546117 0.34651285 -0.2292506 -0.04433129 0.011614663 0.441006 -0.2907471 -0.3171911 -0.12249676 -0.23013394 0.2316414 -0.33341944 -0.32361 0.54870087 0.16723748 -0.29599485 -0.30526394 0.3677733 0.02093156 -0.3148271 -0.0868174 0.058924932 0.47268277 0.1259174 0.31950083 0.012935609 -0.10438111 0.013101272 -0.14988701 -0.14437856 -0.40656415 -0.09698303 -0.33033463 -0.51035357 0.22255462 -0.2208013 -0.20067638 0.34420982 0.2229993
U14118467 -0.21353745 -0.064315274 -0.024595438 -0.16514406 0.111348175 0.1371487 0.12324512 0.058491748 0.25982055 0.22885253 0.0035676039 -0.08179134 -0.12927164 -0.1384848 0.10148457 -0.034380887 0.013066412 -0.19886056 -0.19972731 0.07402717 -0.17472458 0.0114077795 0.20190752 0.2477079 0.21321632 0.32288384 0.049544025 -0.22374883 0.08129064 -0.081821725 0.33152366 -0.056647368 0.08052578 0.042123374 -0.0517965 -0.0063018193 -0.048767023 -0.3299106 0.23297778 0.20491391 -0.26261497 -0.07851702 0.104565114 0.17000936 -0.12567204 0.024665684 -0.029028028 0.08362283 -0.18351977 0.20367326 0.11983166 -0.18787655 0.099774025 0.121820234 0.1630013 -0.10485939 0.13173187 0.11584115 -0.14692871 -0.0020340353 -0.0754249 0.23163985 0.34641016 0.08811101
T348 -0.55242914 -0.24013485 -0.18798894 -0.25922838 -0.12292342 0.108855374 0.31200883 -0.04548631 0.27110076 0.21298335 0.0037599313 0.09881446 -0.011886158 0.11768927 0.31915012 0.034782838 -0.00094858813 -0.16385674 -0.25510117 -0.027816527 0.03667285 -0.13289824 0.17557168 0.07089263 0.17161642 0.38057736 0.10182346 -0.31641153 -0.045543846 0.2619301 0.25794223 0.20844945 -0.089895286 -0.009311278 0.03565433 -0.096577555 -0.22356798 -0.28178254 0.14318092 0.31624898 -0.3813707 -0.07870681 0.29701224 0.049442753 -0.007865802 0.2052399 0.0023371307 -0.04840026 -0.20495886 0.14595415 0.15076695 -0.22934537 0.1429739 0.36208352 -0.00860791 -0.36855054 -0.09058651 -0.20024727 -0.23125072 0.07121034 -0.26135784 0.0065817237 0.1866762 0.117768615
U1437339289277321217 -0.37078783 -0.10412995 0.027278574 -0.23458862 -0.14673167 0.07404244 0.34651932 0.19573638 -0.2471582 0.15720443 -0.1573325 -0.1367116 -0.36511445 0.17914705 0.2083948 -0.041095063 -0.06183249 -0.14326668 -0.33479795 -0.1448349 0.07006959 0.41402236 0.14375198 0.23083034 0.063137464 0.33002856 0.14685845 -0.4934591 -0.11471943 0.10978424 0.34761244 0.09460477 -0.21370848 -0.12190666 0.106305346 0.06185749 -0.018677337 -0.35215062 -0.1400985 -0.046560884 -0.21969798 0.15396017 0.20880805 0.09039469 0.016718645 -0.087281264 -0.1884834 -0.14513019 -0.31132805 0.21548012 0.10002564 -0.13243213 0.18646328 0.31960425 -0.058948934 -0.45225462 0.06034938 -0.071563326 0.06183426 0.007964065 -0.09987695 0.09967446 0.119535275 -0.26058912
T349 -0.18592164 0.23241964 0.30409345 0.15880844 -0.08774626 0.33097166 0.000709307 0.17804036 -0.2735592 0.3339509 -0.25271967 -0.196421 -0.32796383 0.08768081 -0.41294676 -0.20460114 -0.076368205 -0.23622869 -0.110760234 -0.31508482 -0.08178375 0.20600599 0.33384737 0.11418476 0.21338947 0.17593062 0.27246976 -0.4782715 -0.11841032 0.30192024 0.24579087 0.32265568 0.2791898 -0.04161234 0.06431191 0.029495297 0.05648234 -0.19566527 -0.22085392 0.17713782 -0.052171636 0.36562437 0.093440846 0.0072377073 -0.25579453 -0.27418765 -0.32257524 -0.33802933 -0.28068188 0.17023705 0.30999222 -0.28787512 0.2653643 0.43398604 0.16511837 -0.29234743 -0.04882764 0.19105217 0.15105511 -0.15973507 0.056461014 0.124414936 0.14744996 -0.18042342
L1436946254597066753 -0.3031589 -0.15292133 0.19315703 -0.3808352 -0.39586437 0.004992371 -0.18779221 -0.3549894 -0.19024248 0.4181556 0.12397306 -0.24738462 -0.433679 -0.0610824 -0.25323665 -0.3562655 -0.13144377 -0.42973268 -0.1485522 -0.4222208 0.14026727 -0.15729506 0.44643003 0.39759701 0.0720932 -0.17158805 0.46047452 -0.10537418 -0.20388588 -0.09676991 0.41350093 0.17230718 0.19853261 -0.4422306 0.16579646 0.20757689 0.12723264 0.21428412 -0.13043599 -0.1667147 -0.47995663 0.0005165205 -0.37674046 0.30683884 0.1429138 -0.43171203 -0.1927828 -0.2893227 -0.39131013 0.46021867 0.25411552 0.10593004 0.40079352 0.37166154 0.022022018 -0.4615571 -0.38426217 -0.06327441 -0.32961908 -0.21976614 0.011408113 0.40154013 0.4624064 -0.14244358
T97 -0.27937505 0.016638812 0.0038614352 -0.10993663 -0.21564615 0.51651657 -0.20144583 -0.15155761 -0.014103519 0.3337825 -0.12896526 -0.104443684 -0.26274866 -0.07292615 -0.14586897 -0.011508563 0.21146189 -0.17264912 -0.09723696 0.054366987 -0.08118035 0.12610793 0.24252994 0.2094354 0.058565866 0.035173018 -0.08408465 -0.11026727 -0.18701193 -0.20085776 0.11658095 -0.16354267 -0.03175341 -0.17518565 -0.090068504 0.16363116 0.1292222 -0.2623587 0.15285003 -0.110178165 -0.23729454 -0.0119557055 -0.035346087 0.14898843 -0.12829444 -0.18976867 -0.27610734 -0.013620914 0.013524037 0.09485963 0.1543781 -0.2178821 0.15640181 -0.06521651 0.07678393 0.059807483 0.059569642 0.392391 -0.0900873 -0.028238183 0.06002123 0.37705365 0.19667935 0.21547377
L1359007666236891136 -0.25179482 -0.040389612 -0.11144 -0.28686646 -0.14349568 0.10863629 -0.05220702 -0.016235078 0.15917726 0.33695862 -0.09611872 0.2682201 -0.29225987 0.05622172 0.21027958 -0.0009111848 -0.16651309 -0.2526933 0.02607783 0.15239957 -0.3512219 -0.08368553 0.25240448 0.1885093 0.15127929 0.1367138 0.37709126 -0.27058 -0.05669042 -0.061045837 0.33972266 -0.150885 -0.2278285 -0.28154966 -0.12831832 0.11521279 -0.18533584 -0.17061019 0.07404052 0.079733826 -0.04203309 -0.10870975 0.17421098 -0.07069873 -0.26614726 -0.087750345 -0.17007683 0.037533414 0.17999691 0.36184195 0.053547718 -0.13629712 0.04218185 -0.117176406 0.14352363 -0.020649297 0.022538258 -0.14871529 -0.2376924 0.29371995 -0.23384093 0.17863934 0.15711148 0.07921781
T80 -0.19191763 0.33079648 0.3343365 -0.057172332 -0.10142612 0.3714129 0.056607354 0.24547243 -0.22317553 0.46760845 -0.3789299 -0.08780529 -0.46876752 0.038299832 -0.3863267 -0.46859795 -0.15081367 -0.3935869 -0.13225468 -0.33125263 -0.18463308 0.23735559 0.40375227 0.06746139 0.14303741 0.17430845 0.23803884 -0.60398984 -0.12901592 0.1906048 0.40382823 0.27398887 0.43592867 0.026704898 0.23653415 -0.012853568 -0.03821484 -0.19175704 -0.20804133 0.12772578 -0.24453713 0.41261563 0.20645845 -0.18552515 -0.36691263 -0.20172432 -0.50971484 -0.4647233 -0.084664464 0.086221 0.24390551 -0.34136286 0.38719738 0.53326946 0.13383472 -0.19046098 0.084715694 0.23278292 0.1489662 -0.15956129 0.15045804 0.18369938 0.043796062 -0.34483084
U16224080 0.025511233 0.17885068 0.41380495 -0.056872237 -0.121452935 0.2878704 0.015840882 0.15566093 -0.16586973 0.26901045 -0.28313696 0.10821985 -0.3966791 -0.18602872 -0.36729372 -0.29427448 0.05350337 -0.41834125 0.050592624 -0.17610046 -0.09708292 0.43145844 0.3108966 0.099613294 0.01787898 0.26127127 0.3403945 -0.53358597 -0.08737325 0.13357875 0.30250952 0.28757238 0.43888977 0.18830416 0.08945542 0.05658978 -0.06927864 -0.23448016 -0.2639215 0.21448833 -0.30580845 0.3243082 0.020372517 -0.13436592 -0.21705091 -0.43118417 -0.44837683 -0.26127407 -0.18832357 0.18622777 0.16501907 -0.34482646 0.26248145 0.50645274 0.10459699 -0.03381142 -0.0013486751 0.17599574 0.2627325 -0.27061668 -0.003015845 0.07619796 0.13260345 0.06964919
T184 -0.2105486 0.057710208 0.26555285 -0.15223241 0.141127 0.2455569 0.15447386 0.13142484 -0.28128052 0.27419227 -0.27901128 0.22248271 -0.2580138 -0.11245828 -0.06789851 -0.2996699 -0.11573081 -0.30078375 -0.11767793 0.00434875 -0.07449317 0.005322247 0.28657216 0.06109516 0.20025831 0.30664164 0.2541281 -0.3841284 0.043129247 0.32889226 0.40732008 0.27275273 0.38502625 -0.020688204 0.093839735 -0.23355033 -0.14580435 -0.1894907 -0.2823266 0.2750708 -0.17387597 0.08335394 0.20185672 -0.18939628 -0.34314913 -0.10602462 -0.38739374 -0.13298401 -0.30857307 0.13623017 0.008491912 -0.25660846 0.43001276 0.40963697 0.094241485 -0.18588486 -0.38097706 0.062182292 0.107042894 -0.10733123 -0.03873325 0.11826356 0.23448552 -0.041827384
T194 -0.3699863 0.17503516 0.22833903 -0.1936903 0.1896432 0.11734335 0.14051092 -0.032077037 -0.11918478 0.02417101 -0.056508914 0.11247769 0.031327803 0.101446226 0.23603915 -0.09475331 -0.39190874 -0.42800832 -0.08279967 -0.06287258 0.19911811 0.1765088 0.268872 0.16278963 0.37605736 0.34941489 0.07828753 -0.27469546 0.06389354 0.03449352 0.40370893 -0.07381366 0.38472396 0.029394237 0.18172777 -0.27529255 -0.088014215 -0.38197666 -0.32940573 0.062273 -0.046461802 0.23452224 0.031305075 -0.03673389 -0.26009202 0.024723178 -0.45011565 -0.23714963 -0.03634756 -0.09728855 0.12667419 -0.46280956 0.31029072 0.39829504 0.28769597 0.07405168 0.031245548 0.15575673 0.019775344 -0.10409879 -0.106586106 0.3187458 0.47016612 -0.03288621
L1222334546261110784 -0.3352961 0.37719133 0.36635447 0.16100994 -0.34868333 -0.049345262 -0.18377809 0.27273118 -0.26892477 0.34583902 -0.32362285 0.26135823 0.21518369 0.33273798 0.121962205 -0.023201166 -0.18206717 -0.36509338 0.1157415 -0.27481803 0.2629137 -0.043083858 -0.030568128 -0.18139762 0.2969062 -0.019044029 0.24765733 -0.21569288 -0.28417584 0.31174833 -0.060863588 -0.10756258 0.20056914 0.23996331 0.2265748 -0.33769247 -0.35728812 0.1793435 0.19653037 0.26309037 -0.21689579 0.31314847 -0.13353638 0.36523196 -0.3641816 -0.33065438 -0.413666 -0.35475633 -0.21674381 0.09360958 0.23473977 -0.16475056 0.37300575 0.31001273 0.34208193 0.2504147 -0.22661333 -0.22589003 0.1612744 0.18212621 -0.28983814 0.26525313 0.34782225 0.34085262
U1107434743656648706 -0.23161061 0.25455225 0.33179983 -0.11359128 -0.14432245 0.086528435 -0.01742154 0.12551466 -0.33726344 0.08734787 -0.14538749 0.13760003 0.08718645 0.23242967 0.013721326 -0.078719914 0.060201567 -0.25486588 0.005252839 -0.081188425 0.17548972 0.18889429 0.106584325 0.09188136 0.13000609 0.038700037 0.12756452 -0.24736796 -0.095618665 0.090263456 0.14707106 0.089938335 0.01417523 0.0755852 0.0653914 -0.2044145 -0.14686345 0.0351078 -0.05722603 0.11312867 -0.015453737 0.20045531 -0.09379728 0.14840911 -0.24617463 -0.21921965 -0.30386257 -0.2690986 -0.19765073 0.092611074 0.11834176 -0.17830454 0.16840401 0.26148415 0.27145886 0.05009265 -0.07180809 -0.027200637 -0.021618139 0.032656707 -0.0937059 0.083080254 0.12013982 0.23550367
L1235659868565995520 0.10258042 0.23596181 0.2792478 0.0044292016 -0.27453822 0.21723178 0.09315288 -0.015813652 -0.24393603 0.16873224 -0.1747259 0.03415085 -0.14773475 0.20770635 -0.16119076 -0.2613875 -0.1466925 -0.15344019 0.07661733 -0.16084334 0.029552763 0.29248613 0.11036009 0.07405068 0.20763926 0.058526743 0.06740666 -0.22532842 0.030971732 0.19711438 0.096846595 0.039344255 0.034978274 -0.0724099 0.13996488 -0.11983995 0.02200641 -0.10497282 -0.25355786 0.13756189 -0.22652556 0.22159079 -0.15104538 -0.08451505 -0.18176326 -0.25996792 -0.2002301 0.084870316 0.12256157 0.052224927 0.17647405 -0.21276186 0.26615047 0.14779516 -0.027427105 -0.022111025 -0.08361198 0.16366212 -0.14414339 0.1488504 -0.06704337 0.23357809 0.12796436 0.23697294
U235718672 -0.132073 -0.036429614 0.38915664 -0.19164175 -0.0056278524 0.41178837 -0.20829865 0.22946465 -0.14119528 0.15438852 -0.19841342 -0.29908305 -0.3918542 -0.11645499 -0.34579816 -0.445942 -0.19573869 -0.49680844 -0.21197926 -0.03409292 -0.10589685 0.39081475 0.42433697 0.20002435 0.13496707 0.40514442 0.37388498 -0.31880137 -0.2830481 0.33605722 0.36824498 0.3261179 0.22566728 0.115375824 -0.05934012 0.16423507 -0.021365497 -0.13143681 -0.35406494 0.16026314 -0.1071676 0.45817068 -0.18758939 0.02722123 -0.25440618 -0.14643495 -0.22601749 0.031895936 -0.03948682 0.34937173 0.30684412 -0.5149041 0.33973002 0.3131128 0.051640846 0.0012242348 -0.18883704 0.38208032 -0.24019344 -0.3469844 0.19536112 0.1428513 0.18621223 0.136635
L1252390915613708290 -0.050248366 -0.22235517 0.4663506 -0.4063876 0.120325334 0.44365984 -0.21997914 0.27821988 0.2593848 0.08192355 -0.01766573 -0.44226 -0.50677675 -0.15711147 -0.3599638 -0.47136366 -0.13449846 -0.50610304 -0.0069215177 0.22528252 -0.19075121 0.44751298 0.48347 0.45218697 0.28825542 0.46464357 0.45728877 0.014537464 -0.28800756 0.17314902 0.47611064 0.18974926 -0.350631 0.256431 -0.42383802 0.24271752 0.23666626 -0.06610651 -0.20433058 0.46140534 0.09179133 0.46691543 -0.44384804 0.21521549 -0.061984606 0.0037444006 0.11264785 0.16212998 -0.22093578 0.42004228 0.32837832 -0.48374084 0.26544023 -0.14801708 -0.1483397 0.15194465 -0.42419502 0.4363076 -0.43241024 -0.29650372 0.26867148 -0.18339843 0.051413156 0.43822342
U18511698 -0.17399026 -0.032450825 0.21349627 -0.16727671 0.14804068 0.2510555 0.055038005 0.18900928 -0.17685652 0.21149144 -0.18175495 0.06566899 -0.25134656 0.13314572 -0.0068704197 -0.3741402 -0.17994833 -0.39063448 -0.00068376726 -0.117395006 -0.15736115 0.13864423 0.2813826 0.36355388 0.17891139 0.30188867 0.19163673 -0.2970027 -0.1044006 0.18859425 0.3421386 0.2262553 0.23698933 0.051243685 0.011129576 -0.055242334 -0.1063173 -0.16032633 -0.14396103 0.19192421 -0.14097923 0.3033576 0.07019591 -0.1756308 -0.30608672 -0.12037442 -0.2603376 -0.13492236 -0.21157718 0.1101961 0.15825163 -0.23294462 0.23390268 0.2943951 0.16565484 -0.15507919 -0.013425383 0.20302165 0.022934185 -0.20620677 -0.02073792 0.15908648 0.119794354 -0.049110323
T295 0.048873425 -0.18603355 0.2078381 -0.24121928 0.2544708 0.12237489 -0.16313381 0.11447132 -0.28647327 0.38109207 -0.33718535 0.097544156 -0.21350425 0.34583133 0.036922276 -0.07549029 -0.15836033 -0.15333135 -0.18164255 0.22785172 -0.28361428 -0.0746824 0.2500133 0.42882887 0.1691928 0.4091196 -0.0758132 -0.47681487 -0.04649584 -0.05521332 0.34023878 0.27818206 0.16884516 -0.0793721 -0.16201754 0.007169254 -0.07052236 -0.36377943 0.12147642 0.19193788 -0.24464925 0.49803922 -0.17569987 0.17176498 -0.48278853 -0.097601265 -0.5056874 -0.059502505 -0.18725255 -0.16312277 -0.04065307 -0.14609301 0.21298543 0.15867469 0.0882397 -0.39314556 0.10269355 0.3015164 -0.02255943 -0.42332694 -0.013706475 0.060417708 0.14668632 -0.006080549
U1206309751618985985 -0.21824814 -0.043424413 0.05391004 -0.20372905 0.08918867 0.27481508 0.05998686 0.18961187 0.08345507 0.17479345 -0.21920654 -0.13258229 -0.17767316 -0.03364938 -0.0060459976 -0.2253535 -0.10095676 -0.21224439 0.009497363 -0.018870091 -0.2714691 0.28015885 0.1480631 0.24105504 0.033039927 0.32327658 0.13277829 -0.26978245 -0.020520037 0.25728783 0.21742027 0.13384888 0.1250918 0.049606975 0.00076377665 0.17108367 0.019443404 -0.13180429 0.033655606 0.04318735 -0.07561272 0.19661497 0.13550334 0.09624236 -0.15147448 -0.11744124 -0.26484057 0.025759494 -0.07515244 0.23333475 -0.0010545453 -0.26280347 0.16247375 0.08831564 0.07082901 -0.11687756 -0.0145758465 0.047865693 -0.16063754 -0.038772788 -0.021997338 0.10513261 0.18636425 0.031373113
T364 -0.18116777 0.22639169 0.06926886 -0.055412747 -0.11425305 0.13133432 -0.014005585 -0.053452164 -0.13361588 0.11790828 -0.2218632 -0.09340678 -0.104215235 0.26164123 0.018204615 -0.17945156 0.105284266 -0.11897641 -0.057320822 -0.0630083 -0.08106091 0.20179588 0.030686947 0.11297117 -0.026404075 0.13464203 -0.008904086 -0.25427756 -0.08873265 0.023512008 -0.024331594 -0.012445066 0.09312063 0.037687115 -0.0776516 0.08768574 -0.28213698 -0.1599454 0.13515784 0.05802586 -0.20605965 0.0008421877 -0.23401104 0.025927018 -0.054360233 -0.18183737 -0.17728259 -0.017627943 -0.057658486 0.1292624 0.025276184 -0.11874569 -0.058458265 0.1614807 0.29445267 -0.082270816 -0.08465651 0.04001849 0.05688434 0.036147345 -0.079315275 0.058260266 0.105703056 0.16574292
L199798310 -0.33456352 0.29047918 0.16809237 -0.36458525 0.23983267 0.20824823 0.056154102 0.17225707 0.3225536 0.31401443 -0.29538843 -0.3260528 0.023378134 -0.2484585 0.3557331 0.013990482 0.2940292 0.13285579 0.268042 0.39751402 -0.25918502 0.28691405 0.2718204 0.27231887 -0.27100137 0.14841044 0.2538418 0.0038512228 -0.088359535 0.24296565 0.23993859 0.27741128 0.18611136 0.2067379 -0.39101005 -0.27991807 -0.2573791 -0.13972297 0.35038343 0.2571113 -0.39202064 0.17598979 0.33837384 -0.037313357 0.17202947 -0.01554067 -0.11988472 0.39672098 -0.31637383 0.1995929 -0.22495526 -0.16783875 -0.26265258 -0.31390932 0.35220566 -0.26336554 -0.23551002 0.079849586 -0.36933717 -0.28564397 -0.07297944 0.24406452 0.04605422 -0.028403187
U785804521209331712 -0.09277348 0.0853204 0.030613849 -0.16451049 0.15221624 -0.009366348 0.13105927 0.010907401 0.1016423 0.14447454 -0.11870188 -0.11300652 -0.0011490193 0.011281854 0.15391457 -0.0040149437 0.10084705 -0.09125335 0.08144111 0.066097364 -0.18629672 0.11685267 0.10717207 0.21049985 -0.02200345 0.21554253 0.08177035 -0.036563884 0.09644959 0.16407742 0.16915366 0.067297176 -0.018734254 -0.03947053 -0.10207105 -0.17414665 -0.0074343304 -0.106500655 0.05420233 0.06784239 -0.22639132 0.09526897 0.016546957 -0.010393476 0.026757091 -0.090880714 -0.08694998 0.06497216 -0.18700957 0.02071191 -0.1482846 -0.19255432 0.03365465 -0.0061552203 0.11674243 -0.116486035 -0.2553897 0.028586319 -0.21655577 0.040988866 -0.13666743 0.2484321 0.12134642 0.11136954
T95 -0.14687926 -0.11546571 -0.00868299 -0.09005156 0.06232198 -0.091015644 -0.0666546 0.108592995 -0.10128374 -0.02684718 0.116266415 -0.03996792 0.11200001 0.15583321 0.2468605 -0.022132287 0.107491754 -0.27956814 0.01874122 0.028071022 0.024446292 0.054534346 -0.08814907 0.22699156 -0.12251274 0.15536828 0.100559324 -0.07172432 0.32997 0.24075785 0.017283726 0.18362714 -0.18618828 0.08416473 0.21466696 -0.17923498 -0.14431882 -0.071008235 -0.050313897 -0.075411156 -0.3183729 -0.050983325 -0.26681265 0.124662034 -0.21790208 0.023784406 -0.01421711 -0.33812195 -0.28284642 -0.1633659 -0.22003661 -0.21979019 0.17142309 0.37329084 0.30824074 0.008360814 -0.2750963 0.14754191 -0.24470222 0.24115585 -0.073024355 0.1944696 -0.033150204 0.4643176
L1381623675519172613 -0.3837928 -0.16356078 -0.24606434 -0.42905122 0.2551786 0.38508627 -0.20611684 0.24096215 -0.1039202 -0.18727796 0.15586793 -0.42363307 -0.33938947 -0.11709784 0.41175064 -0.37324408 -0.18854159 -0.36980852 0.32147917 0.184898 0.1543713 -0.22395974 0.036012743 0.37089196 -0.2434617 0.33647987 -0.2540222 -0.32249168 0.41072994 -0.22753787 0.33311513 0.25342998 -0.3594994 0.18747823 -0.3142689 -0.37742612 0.26711124 0.16406974 -0.23641823 -0.18265754 -0.38202527 -0.13763061 -0.38311726 0.39507887 0.17759927 -0.36017683 -0.40875158 0.17946224 -0.38022366 0.38845754 -0.39421463 -0.35930908 0.16262175 0.33984387 0.379643 0.17253451 -0.42236745 0.3206599 0.113154836 0.38152987 0.15675364 0.44854227 0.33141884 0.40977058
L1425849375092248584 0.06637226 0.16152021 -0.02431563 0.24545789 -0.009602728 -0.3315164 0.40273398 0.33390433 -0.27572396 0.38575718 0.17241311 0.26118737 0.24275142 0.35097322 0.120312475 0.2220273 0.040657844 -0.46034035 0.1186841 -0.5061313 -0.37405732 0.28576997 -0.0804225 0.446995 -0.0028029445 -0.049881846 0.5466131 0.048340335 0.30565006 0.40104932 0.39651427 0.2838206 -0.1866723 -0.15319018 0.11262278 -0.4580535 0.014026562 -0.1795503 -0.2202985 0.43484333 0.22971618 0.44672439 -0.1481592 0.33829927 0.27472776 0.06741279 -0.26636094 -0.53278273 -0.4082533 -0.27620137 0.0033045155 -0.03194651 0.3041936 0.41660145 0.5389538 0.2167228 0.2765678 0.30319163 -0.3130953 0.64478135 0.056587845 -0.064160116 -0.22790408 0.34885707
T426 0.1057278 -0.069219105 -0.10102284 -0.12531881 0.07362074 -0.2402133 0.17364241 0.09019161 0.2650319 0.17864497 -0.16755982 -0.21578483 0.009948829 -0.02357201 0.12919705 -0.04613609 0.1684679 0.018992662 0.15401728 -0.16228764 -0.4220863 -0.039504837 0.11159643 0.23265159 0.13717255 0.22234413 0.14277197 0.08083961 0.035972062 -0.06531608 0.29737484 -0.2603738 -0.08188123 -0.120204754 -0.11311404 -0.11366036 -0.062483706 -0.32828102 0.061885845 0.07216871 0.051818043 0.15395534 -0.03518619 0.20062129 0.062282924 -0.10685943 -0.043661684 -0.09576598 0.025490135 0.14221396 -0.034391355 -0.03553913 0.20874584 -0.03917537 -0.1286895 -0.15646283 -0.0009025483 -0.008483264 -0.2572575 0.085348725 -0.27410966 0.08314307 0.19527686 -0.0014131118
L193483831 0.07620524 0.2891406 0.28490517 0.06911455 -0.3912065 0.30414894 -4.7456928e-05 -0.34632447 0.25044367 -0.10795445 0.059440665 -0.33312824 0.052598946 0.31404182 0.052399494 0.14028098 0.3049271 0.09891367 0.3313196 -0.20994532 0.15288942 0.23679085 -0.14499694 -0.13419776 -0.21393189 -0.13918382 -0.04568623 0.060982544 0.35824543 0.25727445 -0.116280444 -0.3228048 -0.36556536 0.16117904 -0.33764794 -0.33301923 -0.2636025 0.114708915 0.33997405 -0.11415154 -0.13811994 -0.05144147 -0.3953502 0.34192076 0.13143584 -0.3143458 0.10457931 -0.24866018 -0.41007367 -0.103789136 -0.39415836 0.1500826 -0.11418833 0.081928924 0.30908018 0.1586063 -0.33589247 0.33939913 0.115706936 0.37377444 0.054640833 0.1986535 -0.01462541 0.27982858
U1449320796292272129 -0.098727316 -0.17918575 -0.13689062 -0.09188456 -0.007924002 -0.03704415 0.10293465 0.058120728 0.35688567 -0.0979499 0.040076584 0.05552745 0.049135987 -0.04227194 0.16373034 -0.082512066 0.15862505 -0.085385926 0.16064875 0.055829976 0.03510192 0.24852917 -0.09408823 -0.025844881 0.082629114 0.121701404 -0.13246325 0.24456713 0.16613893 0.3543351 0.09166155 0.043355536 -0.07059432 -0.026669351 -0.34051415 -0.3350928 0.016186012 -0.08854395 0.074581355 0.14906879 -0.07591304 0.17111322 -0.21365896 0.08369142 0.10124547 -0.1886431 0.072151616 -0.30607858 -0.20203792 -0.061332002 -0.40144765 -0.06265304 0.13920046 0.26332888 0.41396448 -0.12841457 -0.34874207 -0.02546084 0.033562645 0.19771953 -0.22590615 0.085036024 -0.023184024 -0.022377271
L732900605358968833 -0.03504454 -0.037183005 -0.006085122 -0.04691472 -0.046077944 -0.059052426 0.16634183 -0.044882607 0.23656864 0.030040361 -0.03663186 -0.08655705 -0.0024601698 0.03041984 0.015618011 -0.07132639 0.1392356 -0.00077496475 0.14242348 -0.093237735 -0.15259098 0.10806991 0.055974796 0.13412267 0.0729366 0.120488994 0.07432494 0.007992848 0.072831556 0.041535422 0.0970893 -0.013939442 -0.10525343 -0.071740694 -0.17057475 -0.105112754 -0.0024021312 -0.0701566 0.018150333 0.12283928 -0.07634906 0.1722621 -0.15081857 0.14686227 -0.08873035 -0.015848426 -0.0801097 -0.12536107 -0.10606646 0.059746124 -0.17082211 -0.02051673 0.093471445 0.0810891 0.18450464 -0.14298652 -0.14111044 0.03164428 -0.08170026 0.14683221 -0.18503204 0.0984297 0.07412435 0.042571884
T227 -0.06101466 0.027643869 -0.28337353 0.111984774 -0.29940486 -0.1269585 -0.06662646 0.26263183 0.12589487 0.06590165 0.06384883 -0.08145603 -0.09999126 -0.22418188 0.10406968 -0.20536433 0.33666483 -0.24085541 -0.015374739 -0.26360634 -0.404703 0.18365821 0.044661496 0.041366506 0.09375829 0.2277547 0.26586986 0.059145305 -0.13601904 -0.21074486 0.18015732 -0.118989944 -0.20668517 -0.15882598 -0.23480247 0.013653406 0.108633935 -0.4450804 0.15406449 0.122179 0.20522846 0.26046953 0.038467254 0.2608652 -0.22777672 0.06797646 -0.08193818 -0.10814033 -0.01874829 0.1728924 -0.30934736 0.05060192 0.16611636 -0.22029884 0.15050375 -0.10153794 -0.19877504 -0.10545422 -0.10673559 0.1309538 -0.5139851 -0.06375974 0.050658997 0.19460118
T393 -0.21434242 0.09743186 0.12766007 -0.22941448 0.13740379 0.0128187565 0.2852955 -0.11510303 -0.31027022 0.19625327 -0.14811218 0.26210096 -0.1334078 -0.11102162 0.29231617 0.03161183 -0.085428126 -0.29098713 -0.17964204 0.12917542 -0.06497556 -0.13466729 0.1443081 -0.012935329 0.1591939 0.23487055 0.30408671 0.029722298 0.2959255 0.01943274 0.33201078 -0.09472694 0.058656678 -0.107614696 -0.0044730343 -0.58358294 -0.2894648 -0.082434244 -0.18788166 0.28714806 -0.07616112 -0.11950055 0.060255148 -0.16592461 -0.3368909 0.28517076 -0.21131599 0.018598052 -0.19784404 0.1274757 -0.38071376 -0.045645837 0.49487978 0.37434125 0.106383756 -0.20361008 -0.49232095 -0.10780715 -0.35043123 -0.15984981 -0.1341254 -0.12389057 0.067537 0.16736978
U55364344 -0.11831997 0.07397538 0.021202201 -0.19549839 0.038017694 0.042461663 0.16732001 -0.0070482595 -0.018069794 0.11737595 -0.038705707 -0.023839252 -0.15415026 0.06530185 0.08446196 -0.11811636 -0.018284334 -0.11303207 0.038448226 -0.051159136 -0.017407656 0.027629573 0.11305784 0.08136829 0.18490161 0.1279869 0.056698512 -0.15829903 0.06976995 0.03799565 0.15228587 -0.008216439 0.0120369205 -0.070372164 -0.023802783 -0.087783776 -0.18093543 -0.134193 -0.05090109 0.114640765 -0.13433923 0.031785455 -0.079434484 0.006525507 -0.137875 0.011575603 -0.11783394 -0.02047702 -0.18499252 0.114242606 -0.079195336 -0.16819155 0.19259454 0.10305976 0.069656335 -0.15970549 -0.17180288 0.062825754 -0.1281113 0.043891553 -0.117664635 0.10206007 0.15872057 0.106885195
T296 0.0111910775 0.014329973 0.08049287 -0.14993253 -0.028714024 -0.010358452 0.07478589 -0.04000551 -0.00015447581 0.0022419528 0.08539411 -0.055726897 -0.14320941 0.20539807 0.14575486 -0.17488045 -0.006788632 -0.1679246 0.12874426 -0.011821674 -0.06494404 0.009468708 -0.14680181 0.24163277 0.075865954 0.1974945 -0.015661003 -0.1324707 0.1703629 0.23237361 -0.066394635 0.12590975 -0.16630062 0.07165561 0.02454619 0.085092425 -0.3475259 -0.12977234 -0.12906021 0.10244176 -0.10325957 0.11622849 -0.25315142 -0.008174544 -0.19984005 -0.071262285 0.09249548 -0.24360865 -0.23324288 -0.11288589 -0.15097228 -0.10181542 0.15074953 0.31515267 0.21452495 -0.09410472 -0.14337409 0.023321625 -0.29633176 0.11244364 -0.08345718 -0.018578226 -0.10027761 0.21736744
U4219046133 0.04810839 0.13079065 0.16091444 -0.17610642 -0.277516 -0.042216245 -0.13081287 -0.1244347 -0.1817945 -0.016423292 0.15679424 -0.21210177 -0.14388631 0.23735677 0.28545815 0.013573555 0.22336009 -0.15956078 0.20561759 0.02875071 -0.07692473 0.27020922 -0.096901916 0.066060066 0.06412373 -0.072370775 0.04580416 -0.123188145 0.16832697 -0.22207609 0.13870287 -0.08857517 -0.4156401 0.046941046 -0.2464517 -0.25884455 -0.32143852 0.024188764 -0.011777674 0.20732963 -0.13078791 -0.19499063 -0.46692583 0.18127924 -0.06693375 -0.16548005 0.033010695 -0.07701887 -0.294449 -0.20719403 0.081081584 0.1636757 0.082275346 0.22410645 0.34148103 -0.11542093 -0.24667554 0.14278124 -0.18258163 0.044017807 0.09077813 0.06479554 -0.19278885 0.16490874
T356 -0.034652103 0.22347313 0.10165193 -0.17984219 -0.03572622 -0.0052658236 0.106013015 0.09523369 -0.072215065 0.12596425 -0.21924116 0.045152377 -0.11218106 0.023951028 0.16543038 -0.22447719 -0.010397857 -0.21519692 0.0047468846 -0.10850686 0.007934546 0.15133534 0.15688565 0.22055829 0.22716856 0.22866042 0.02725805 -0.1512729 0.17903046 0.04150042 0.13545409 -0.1683217 -0.11728014 -0.19424662 -0.03698689 0.033661477 -0.16649589 -0.26680934 -0.20836887 0.19200417 -0.1894668 0.054684564 -0.22733112 -0.053785466 -0.17167455 -0.03233519 -0.22186995 0.15653567 0.10227044 0.08407592 -0.08970313 -0.24372461 0.16636653 0.2956927 0.15223262 -0.1928069 0.23894945 -0.02983649 -0.16480573 -0.078754485 -0.12728943 0.07087541 -0.01730295 -0.20616382
T36 -0.08731389 0.2402039 0.14289026 0.12452459 0.11135371 -0.011753091 0.31046188 -0.1669707 -0.060988616 0.27849126 -0.01620769 -0.30235192 -0.04252688 0.41822308 0.13993067 -0.27013078 -0.082802236 -0.00061573036 0.042424124 -0.32654825 -0.01976186 -0.35836715 0.24440254 -0.02426827 0.018634973 0.13787398 0.039651975 -0.4449588 0.2065609 -0.04455101 0.28914762 -0.4088263 0.017793965 -0.04082916 0.07442174 -0.3555977 0.26488286 -0.16196695 -0.08315846 0.12932238 0.063462906 0.2208458 -0.07254383 -0.13622776 -0.17393187 0.07551771 -0.28270265 -0.299493 0.16018125 0.055237345 -0.015746607 -0.11022788 0.21321717 0.17909448 -0.0796396 -0.36802527 -0.26652846 -0.04921149 0.267608 -0.17816971 -0.2163944 0.045625232 0.05607021 -0.010711991
L18888751 -0.053399462 -0.1546805 0.31875208 -0.44215125 -0.4022305 -0.29778284 0.47558835 -0.44471958 0.45948908 0.099539846 0.12753344 -0.4936069 0.1807814 -0.06364391 -0.1518848 -0.44067892 -0.15677139 0.23749426 -0.13726233 -0.1048857 -0.22208518 -0.22283648 -0.11508913 -0.13258184 0.4593759 0.39224803 -0.13299799 -0.22486399 0.010179112 -0.23621723 0.26899794 -0.47034594 -0.40966776 -0.47471628 0.20510188 -0.16222334 0.22371571 -0.42476115 -0.21783501 0.4635168 0.15327999 -0.25904867 -0.31831032 -0.11024247 -0.017601313 0.21176635 -0.45125818 -0.46300578 -0.46787748 0.45297444 -0.3461913 -0.027463388 0.4647391 -0.1309169 -0.084298156 -0.11334143 -0.46435672 -0.19725484 0.009578796 0.018965408 -0.039180424 0.41903043 0.051215407 -0.20892027
U1420621092381765636 -0.10680543 0.092310585 0.2259223 -0.46630147 -0.38510862 -0.29080176 0.422489 -0.3493344 0.4817608 0.24642056 0.085094325 -0.39742604 0.2942875 -0.1461365 0.13692088 -0.19257823 -0.17799665 0.23668844 0.06585038 -0.24720909 -0.3333802 -0.24759375 -0.11085571 -0.20326893 0.48363516 0.40618753 -0.19197603 -0.093116306 0.17743619 -0.24401297 0.42488185 -0.4131544 -0.3056271 -0.5059552 0.2561195 -0.30829805 0.24388845 -0.48401845 -0.21013917 0.44150633 0.06436393 -0.23935457 0.121404916 -0.10596119 -0.015230769 0.27965888 -0.4891837 -0.25485718 -0.37188867 0.45802653 -0.2654476 -0.22410773 0.4912738 -0.0824486 -0.18013796 -0.20567212 -0.4218559 -0.19270553 -0.088319145 0.1159432 -0.109261714 0.40653118 -0.12048421 -0.26447296
U3044094875 0.002042344 -0.08106949 0.344955 -0.255101 -0.26359415 -0.22074623 0.38269988 -0.30515727 0.2745194 0.21286733 -0.043726172 -0.356295 0.11615832 0.13351364 -0.10524141 -0.31495184 -0.119328365 0.19515263 -0.11275626 -0.24113822 -0.22440462 -0.1429729 -0.18702033 -0.17791817 0.3962122 0.2621276 0.020207323 -0.2171977 -0.055499256 -0.22608466 0.32753703 -0.3194431 -0.31942683 -0.40328297 0.047254693 -0.20531063 0.10621961 -0.2587575 -0.16745764 0.3942492 0.1717388 -0.2431941 0.05869041 -0.14115512 -0.17893186 0.095573284 -0.24796748 -0.34031245 -0.35947526 0.35062954 -0.29332894 -0.02257839 0.38325095 0.029958677 -0.2265809 -0.27299565 -0.37947056 -0.21166338 -0.09379617 0.20197663 0.017490707 0.14251234 0.09277524 -0.08094078
T450 -0.28124535 0.09577476 0.075938225 -0.2551994 -0.22320361 -0.3589159 0.32971948 -0.028317574 0.47358888 0.30579177 -0.021782141 -0.3443704 0.339557 -0.037085783 0.3976789 0.026386656 -0.028444426 0.27326792 0.22639829 -0.2869898 -0.48514032 -0.031689003 -0.042120725 -0.14572732 0.47706866 0.29967424 0.054773368 0.04802004 0.08785899 -0.23378737 0.41225812 -0.4007992 -0.0827943 -0.4689984 0.26724276 -0.29441455 0.25200647 -0.3816816 -0.057715166 0.20721291 -0.01354477 -0.20812795 0.21381389 -0.08731727 -0.15509848 0.32569313 -0.3620672 -0.049624003 -0.22250648 0.30369797 -0.2633227 -0.31977358 0.38168234 -0.014996967 -0.28812656 -0.3811014 -0.44730142 -0.20259824 -0.1960731 0.15284337 -0.13188899 0.23601857 -0.11529015 -0.29695043
U1440341129547837453 -0.13082099 0.48124793 0.3369613 -0.44663873 -0.054493193 -0.4368973 0.17666526 -0.13517074 0.64078206 0.2684625 -0.18951498 -0.5501491 0.42890397 -0.15026332 0.49396026 0.25276348 -0.059615113 0.3215167 0.40077478 -0.2289865 -0.35827842 -0.25795776 -0.047970682 -0.36526537 0.4858091 0.1598318 0.03709277 -0.1471167 0.27908194 -0.39497924 0.4271448 -0.4933233 -0.29591295 -0.503946 0.37885293 -0.534615 0.081809364 -0.26632625 -0.3906512 0.3404244 0.099010594 -0.14957854 0.38549557 -0.18979341 -0.1895299 0.3958498 -0.36448348 -0.33136111 -0.4626581 0.058164433 -0.48601577 -0.4300056 0.3323221 -0.025452217 -0.11995758 -0.25291666 -0.060336474 0.11147209 -0.18893898 0.3058019 -0.1578215 0.50275564 -0.01874664 -0.41662773
L1265319004392099841 -0.17127417 0.28160897 0.21676412 -0.3114 -0.0048357844 -0.19402468 0.03483934 -0.043433916 0.34112236 0.34340462 -0.16213067 -0.33442762 0.17107196 -0.11748779 0.41099417 0.13489236 0.048377007 0.15267853 0.29949036 -0.2405427 -0.33717892 -0.18002017 0.02819383 -0.16337638 0.39426032 0.3069735 -0.13123046 0.07459449 0.24395645 -0.19897416 0.26404566 -0.2596462 -0.20521295 -0.33944577 0.18936795 -0.3169851 0.16304302 -0.28978732 -0.13969657 0.32223827 0.039987564 -0.047281258 0.23420522 0.04000608 -0.1858049 0.124407604 -0.25751483 -0.21424389 -0.22503424 0.21816516 -0.29593554 -0.2644758 0.36816302 0.00810218 -0.19801761 -0.29271322 -0.03207715 -0.054228306 -0.30065626 0.073220536 -0.18140146 0.29188836 -0.023604047 -0.19041805
U3032698869 0.006361871 0.48852828 0.12964039 -0.21376318 0.017615946 -0.42712682 -0.01478696 -0.08232433 0.46300232 0.2987422 -0.06848939 -0.39119878 0.23341192 -0.034017146 0.4107078 -0.106552616 -0.093039185 0.32390577 0.41198456 -0.43959528 -0.45883945 -0.12983027 0.21219797 -0.16926132 0.4215415 0.49774206 -0.056830212 0.18522817 0.23253414 -0.37916353 0.21433158 -0.35490072 -0.05484397 -0.50010663 0.22022288 -0.3307143 0.32786113 -0.4180398 -0.06930232 0.44486046 -0.001255819 -0.08537141 0.34617183 0.10969515 -0.2544322 0.08850428 -0.2710214 -0.18444052 -0.13495213 0.27954772 -0.13372463 -0.43097237 0.34270164 0.11344802 -0.47898352 -0.44020805 -0.14897574 -0.038428355 -0.2489809 -0.0808318 -0.27464896 0.16977534 -0.07511323 -0.26984704
T397 -0.13414231 0.26297256 -0.07408026 -0.10457202 -0.0043942826 -0.20834509 0.13705611 -0.114144035 0.16984273 0.14284514 -0.12567641 -0.10053575 0.17493005 -0.07715494 0.27484003 -0.044900365 0.102840714 0.107732065 0.16463013 -0.26841843 -0.30489162 -0.077466734 0.19645911 0.05931489 0.3304307 0.39383972 0.07785663 -0.016968127 0.22094908 -0.22275884 0.21526836 -0.15382367 0.13506478 -0.38634667 0.17595588 -0.15427494 0.062507674 -0.3688809 -0.0031597505 0.2470815 -0.0071621104 0.0026934952 0.28441396 0.011201085 -0.13329925 0.00023867219 -0.23498002 -0.15143573 -0.07273764 0.3233915 -0.09985152 -0.28099665 0.1772712 0.07125473 -0.23309119 -0.3505404 0.0030514041 -0.03755963 -0.14500043 0.023783097 -0.16908705 0.051667046 0.14344324 -0.032538526
L1384864609346101249 -0.32832417 -0.026652481 0.10462464 -0.11001382 -0.23417449 -0.07771581 -0.031403456 -0.21530488 0.27547276 0.0924533 -0.3265387 0.17199619 -0.044653427 -0.21206667 0.2701289 0.09738436 -0.24216633 -0.15373741 0.22472598 -0.30390316 -0.046442486 -0.21934864 -0.19598387 0.20194513 0.338157 0.1364492 0.34004256 0.12444967 0.29982015 0.15927711 0.25599456 0.11939063 -0.33707505 -0.27222466 -0.21416849 -0.1539568 -0.2326087 -0.16776219 0.13038184 0.23558079 -0.044174373 0.034648 0.2559225 0.01175208 -0.31936783 -0.084437095 -0.19052754 -0.013124 0.14857791 0.35556757 0.11445189 -0.053752422 0.11736962 -0.21655926 -0.23669556 -0.3312511 0.24710049 0.27645108 -0.36479175 0.058548365 -0.2841468 -0.15744564 0.3283668 0.27324212
T473 -0.0033606167 0.16034235 -0.12258724 -0.2718801 -0.1361252 -0.40457854 0.26951283 -0.3540524 0.37405178 0.08837022 0.22295016 0.46546602 -0.07555209 0.086581334 0.4410673 -0.36029068 -0.13618746 -0.24783461 -0.11743559 0.055946678 -0.25409213 -0.5207164 0.19220221 0.41919357 0.5103112 0.438171 0.21525697 0.051246278 -0.09032585 0.089560956 0.28815493 0.03553272 -0.4096678 -0.42645612 -0.23374602 -0.36602747 -0.2517268 -0.14599037 0.48296657 0.31363097 -0.382795 0.043798428 0.40571755 -0.23493138 -0.5056125 0.13972585 0.15021108 0.07998838 0.27525508 0.53490186 0.09995709 -0.111987814 0.29796776 -0.21030371 -0.26562628 -0.37640756 -0.003782762 -0.18574637 -0.61941475 0.33028302 -0.37461972 -0.37762547 0.36435726 0.2519056
U1283822688524554240 -0.13407011 0.0875858 -0.1499157 -0.0666124 -0.15966527 -0.08790964 0.2151899 -0.22249259 0.36111504 0.23846625 0.029705508 0.32864252 -0.065677926 0.1869637 0.38526082 0.055332102 0.056214917 -0.060226552 0.10561435 0.17453107 -0.22067755 -0.18086936 -0.011174084 0.1430074 0.23513418 0.25740415 0.1890558 0.07621381 0.10650644 0.2889567 0.27550104 -0.10182775 -0.33631998 -0.21462916 -0.12506239 -0.2326855 -0.36306912 -0.034971103 0.35725078 0.1537031 -0.27853575 -0.10026899 0.29370365 -0.18314335 -0.22716516 -0.02311986 0.039439604 0.15774187 0.10307117 0.33293715 0.09771647 -0.11683301 0.12672205 -0.16117267 -0.16146775 -0.25843412 -0.34376433 -0.19890872 -0.26367822 0.4207398 -0.14526479 -0.24383968 0.24666649 0.19351791
T471 -0.33735022 0.17859843 -0.23863079 -0.16391934 -0.16391051 -0.019160805 0.28330022 -0.2895084 0.17322078 -0.009437697 0.05851148 0.1484305 0.2314109 -0.09657878 0.34365207 0.07563324 -0.124098815 -0.0064018285 -0.16283475 -0.10229139 -0.119401515 -0.26400352 0.2954402 0.14747529 0.09432062 0.32954314 0.2141689 -0.15799223 -0.17062339 0.18554817 0.24371132 0.016099583 -0.21529348 -0.08689674 -0.115163125 -0.16995902 -0.34304243 -0.26687747 0.15886068 0.43715727 -0.16781022 -0.06476113 0.04487432 -0.17900552 -0.1826356 0.2088651 0.08978203 0.15103388 -0.12540959 0.3840837 -0.113303006 -0.33539405 0.1952177 -0.08721235 -0.08499149 -0.24079974 0.07891347 -0.12931727 -0.33004484 0.22670147 -0.2417714 -0.018476356 0.3181553 0.343354
U1271811297114574849 0.021115005 0.19228289 -0.015531414 -0.054142896 -0.11716119 0.12702012 0.14999793 0.027269809 -0.010872926 0.17474864 -0.099217914 0.06373777 0.07090952 0.29898378 0.20535116 -0.29070663 -0.20747495 -0.29448625 -0.1918838 0.107831754 -0.033714812 0.04543103 0.2579294 0.27566418 -0.00054475263 0.33457544 0.18805717 -0.32350507 0.15174212 0.09232155 0.36114514 0.08721417 0.10046311 0.02599043 0.009452203 0.11649537 -0.030408971 -0.076165445 0.14754714 0.14266919 -0.23331448 0.07801791 0.108278655 0.016822034 -0.20947625 -0.23966414 -0.14422959 0.18283199 0.020885265 0.28599718 0.108195044 -0.33954096 0.06485479 0.17972875 0.18185124 -0.37267247 0.22318359 0.2162055 0.018957088 -0.12054899 -0.07195549 0.21492581 0.17830601 0.21429797
L743929525348745218 0.10717444 0.4039078 0.029493345 -0.2948097 -0.20775346 -0.12769282 0.14794266 -0.36834663 -0.082987234 0.35199502 -0.099352874 -0.28386447 -0.0004270453 -0.034532845 0.37981275 0.021452578 0.23671335 -0.304801 -0.27556252 0.32204488 -0.16557543 -0.33598053 0.3390841 0.3527525 0.2529264 0.36603278 0.32721266 -0.15294144 -0.103906855 0.33550155 0.35247543 0.3288355 0.35070324 -0.18424863 -0.22768708 0.27472168 -0.3045118 -0.36603233 0.27530292 0.42296344 -0.35200843 0.35938618 0.22973302 -0.33251575 0.19347127 -0.16845404 -0.33377886 0.20002098 -0.3762778 0.38328272 0.21023098 -0.40114447 -0.03689477 0.25346816 0.23644115 -0.24738728 0.17290992 -0.1654679 -0.20154606 -0.039107256 0.060547404 -0.14681458 0.34058633 0.12911129
U827931248458764289 0.08057678 -0.3022333 -0.34684843 -0.2324348 0.06256757 -0.33815065 0.20795213 -0.07264115 0.3480139 0.07784452 0.030181382 0.042612333 -0.0693976 0.30591914 0.37147442 -0.30661383 0.3259127 -0.04064093 0.15999211 0.18383858 -0.08312682 -0.23635517 -0.07314219 0.46858802 0.14956969 0.32412934 0.21392307 0.09922787 0.16974021 0.23097903 0.33245027 -0.028255634 -0.23146617 -0.35641566 -0.017638143 -0.09213914 0.051514708 -0.4240727 0.35626754 0.039802052 0.21428055 -0.09407862 0.18861704 0.0050151255 -0.3689534 -0.10173462 -0.030581344 0.111926176 0.21472435 0.26405612 -0.24050023 -0.24517874 0.12424535 -0.10468167 -0.008678619 -0.20123614 -0.006215319 -0.1019703 -0.2806404 0.07610528 -0.2971283 0.21154776 0.38531002 0.0429597
L1404866317832785920 -0.31881553 -0.27433118 -0.28982344 -0.15931696 -0.3871578 0.052686617 0.41339293 -0.1839036 0.23140644 -0.14959426 0.09976967 -0.15720798 -0.08605171 -0.0026362531 0.39619708 0.007047647 0.40029654 0.19531666 -0.29241166 0.2000113 -0.14452082 -0.303362 -0.08631102 0.3100222 0.16703983 0.4366953 0.04554308 -0.12513669 0.2536332 0.26873726 0.38838103 -0.25652754 -0.32700044 -0.30490705 -0.30476284 -0.332917 -0.22676526 -0.27493003 0.13800202 0.37410495 -0.23572615 -0.29949975 0.05612782 0.054250173 0.10170673 -0.28864878 0.16510423 0.22434668 0.270727 0.30299947 -0.2548996 -0.10954089 -0.12141297 -0.13618726 0.3243766 -0.41719142 -0.037544385 -0.27958268 -0.36585236 0.11464878 -0.039666668 -0.23537832 0.26515144 0.16864397
U267704342 -0.1380216 -0.19596602 0.16122378 -0.28996003 -0.15561105 0.17644306 0.29830799 -0.040614232 0.35309932 -0.2297472 -0.22970946 0.028278362 0.10357289 0.22771458 0.35678065 0.07520686 0.11014845 0.016206369 -0.22997463 -0.2971203 -0.1877945 -0.34634915 0.17592052 0.34255576 0.08175474 0.35145658 0.13641049 -0.051646203 0.21797577 0.114280425 0.3545314 -0.29696208 -0.15148446 -0.21817115 -0.0041395104 -0.14339177 0.028345387 -0.23485759 0.21967304 0.4015501 -0.06642561 0.032147743 0.04597007 -0.24916564 -0.12501626 -0.118250996 0.042643044 -0.027518703 0.122143485 0.2918566 -0.026404722 -0.17587735 0.10234904 -0.2985018 -0.084040545 -0.39276892 0.17185308 -0.2901389 -0.37312832 -0.094970815 0.08081187 -0.03792569 0.10056171 0.35877156
T423 0.11392088 0.2910823 -0.11136666 -0.21885163 -0.04591638 -0.28571212 0.31694794 0.0021743616 0.38998082 0.14610654 -0.26806146 -0.28187606 0.1496649 0.24560763 0.21785358 -0.10363363 -0.09145824 0.019567348 0.18413363 -0.29783195 -0.32093108 -0.16321242 0.30351093 0.14207813 0.16133308 0.463408 0.06567931 -0.18176082 0.16977274 -0.24460304 0.21313798 -0.04899874 0.3387385 -0.29367748 0.02054926 0.13532057 0.041001476 -0.26816395 -0.08878012 0.32091323 -0.22725464 0.21637268 0.36646563 -0.029304668 -0.16193715 -0.051403087 -0.31046718 -0.3441175 0.019846926 0.23435448 0.14555089 -0.39337012 0.29239374 0.19711395 -0.1274944 -0.20118596 0.19433025 0.017982287 -0.11284967 -0.064410836 -0.021271989 0.057599276 0.21470591 -0.20823522
U3185056135 -0.25463608 0.06935553 -0.020588214 -0.15410985 0.11628013 -0.028263478 0.40411937 -0.27352193 0.25887433 0.11222 -0.14875221 -0.01019665 -0.22765289 -0.038729295 0.038524948 -0.088446945 -0.22485586 -0.05182775 0.0031352013 -0.0048089265 -0.18035142 -0.26458293 0.29828468 0.1911981 0.07019844 0.36785346 0.3146635 0.033933103 0.07559298 -0.17884667 0.31175414 -0.28826275 -0.16738862 -0.27559984 -0.24532595 -0.054604772 -0.30869573 -0.29503867 0.33276847 0.2750339 -0.2284269 -0.1568766 0.3276767 -0.15960386 -0.06365104 0.009584506 -0.020161608 0.20764895 0.10728566 0.28300402 -0.048000943 -0.26148647 0.058419187 0.15016079 -0.13719402 -0.3000058 0.2519428 -0.07644763 -0.27956954 0.055767417 -0.39050794 0.069160566 0.16635485 0.061071184
L1418514919654367236 0.24243581 0.49908656 -0.13690671 -0.509136 -0.1625175 -0.27402356 -0.114270516 -0.18597868 0.4957532 0.013129682 -0.48859605 -0.18374702 0.23480636 0.41274232 0.5307085 0.18984918 0.43060535 -0.019164324 0.031973094 -0.1107859 0.030897724 -0.2542488 -0.16762702 0.34347445 0.5053899 0.47536424 -0.11252722 0.15403502 0.16255201 0.32961488 0.43216932 -0.49383152 0.084101774 -0.047652937 0.08905119 -0.49920788 0.29513162 0.105828956 0.1839484 0.5007563 0.22552323 -0.26293066 -0.35894847 0.43256682 0.1845779 -0.35281348 -0.36047933 0.114710204 0.13672662 0.06807354 0.22369488 -0.015244035 0.499097 0.4690221 -0.0945185 0.058203448 0.058572493 0.47476786 0.09643343 0.23769483 0.1815945 -0.21388863 0.47743356 0.23452592
U1449114665544560645 0.14528811 -0.02235151 -0.17171015 -0.14858696 0.17749894 -0.26742664 0.35188943 0.053759024 0.36454087 0.22312438 -0.11821135 -0.15129526 0.07105193 0.0078131 -0.027259402 -0.04940895 0.07188038 0.036965482 0.054815248 -0.19534433 -0.28925273 -0.14077948 0.2544311 0.36757088 0.2254857 0.27038166 0.29258835 0.1539631 0.24226063 -0.14879654 0.20615447 0.028263383 0.06606569 -0.15946569 -0.13694261 -0.10457076 -0.032738924 -0.3036738 0.0041641453 0.21862322 -0.250577 0.20660803 0.08038486 0.16050261 -0.15612294 0.10054134 -0.31850952 -0.20573333 -0.07234771 0.2282943 -0.09925387 -0.024537861 0.07875573 0.111960456 -0.1618385 -0.19269371 0.07943009 -0.07752542 -0.18117651 0.14336385 -0.24537928 0.24351709 0.22264653 -0.12508777
T270 0.008142328 -0.3821391 -0.30278167 -0.20494866 0.16770306 -0.080207095 0.57131076 -0.17562191 0.18933007 0.3173042 -0.1640862 0.11551483 -0.069651775 0.30605286 0.17165458 0.3583606 0.18967418 -0.014258305 0.05752477 -0.058391176 -0.34318405 -0.13365513 0.08864005 0.5931934 0.14746988 0.25019926 0.5958853 0.28431162 -0.16995788 0.25502574 0.37210807 -0.21382153 0.033413973 -0.17042078 0.046210956 -0.3336677 0.21034212 -0.24348155 0.25604215 0.29434195 0.08514513 0.34418762 -0.17183535 -0.01974568 0.021179777 -0.28142336 -0.069106966 0.13180156 0.10147621 0.29266638 -0.24557419 0.17926034 0.02192202 -0.23911704 -0.13250671 -0.10393305 -0.15347534 -0.12243187 -0.19120161 0.15947117 -0.05242277 0.30813444 0.24563818 -0.0029675015
T274 -0.1863633 0.14432979 0.17855957 -0.16081329 0.08833759 -0.111811 0.2262893 -0.17233738 -0.14243972 0.1941324 -0.082740575 0.27602437 -0.11961055 -0.2528217 0.24948122 -0.004320869 -0.22402301 -0.17647745 -0.07017669 0.12939699 -0.20684506 -0.12157789 0.076021455 0.14134862 0.26494634 0.18333517 0.18929054 -0.04276388 0.36019468 0.34226957 0.38708615 -0.06711861 0.06255029 -0.15224616 0.21360305 -0.3747293 -0.14293234 -0.17692266 -0.1922263 0.18385278 -0.1521606 -0.13851133 0.014938448 -0.26427892 -0.18688343 0.14913099 -0.2901728 -0.010396937 -0.2803032 0.09843933 -0.21978964 -0.23684497 0.38063505 0.22286804 0.07937674 -0.26622117 -0.39496583 0.0052608624 -0.20099667 0.053630855 -0.1636223 0.06256856 0.06029219 0.129315
T461 -0.2535271 0.05658061 -0.057896815 -0.4228085 0.0113363955 -0.22316927 0.46402168 -0.04773032 -0.039633937 0.20631059 -0.095387 0.04077679 -0.014471798 -0.0743918 0.093316466 -0.118357934 -0.09508442 -0.10175989 -0.22725186 -0.0058250264 -0.16856834 -0.3081419 0.10946126 0.26194307 0.3831296 0.35067096 0.062341027 -0.070770785 0.27968335 0.14177881 0.39616084 -0.049825057 0.20391709 -0.18995082 -0.02643346 -0.33201063 -0.109919064 -0.12446306 -0.09385903 0.3435531 -0.14533533 0.10031565 0.21053481 -0.17780222 -0.2475098 0.26237243 -0.39477623 -0.054393947 -0.1572159 0.33976427 -0.19065946 -0.16374068 0.36680022 0.20598291 -0.093705304 -0.27284318 -0.30902213 -0.021804396 -0.07506697 -0.10253844 -0.37773854 0.07375141 -0.027335363 -0.040243976
T224 -0.30901074 0.29098 0.16546282 -0.33256307 0.12729867 -0.17669713 0.45806277 0.033513203 -0.00012788047 0.29396847 -0.12548664 0.28491795 -0.05066014 -0.22367284 0.25783497 -0.20909873 -0.19444172 -0.25635687 -0.077118985 0.021151582 -0.2420163 -0.15340316 0.18270457 0.33564335 0.2599182 0.25219586 0.049244594 0.007612022 0.38548708 0.13766584 0.19965127 -0.02449583 0.1453632 -0.26028138 0.1009967 -0.36877343 -0.037816778 -0.14506379 -0.12549965 0.16153635 -0.049634732 -0.14036562 0.085738465 -0.22295606 -0.27015626 0.09666848 -0.20750041 -0.12245489 -0.21957348 0.16570787 -0.19461629 -0.1431932 0.33594364 0.1664965 -0.071397714 -0.18278255 -0.40338552 0.06507932 -0.03806174 -0.08039757 -0.16347058 -0.1704483 0.13953874 0.08475378
T243 -0.18035933 0.069439106 0.23818369 -0.21435992 0.15218475 -0.052353505 0.26539657 -0.017726129 -0.05702666 0.24015956 -0.16426037 0.2710499 -0.20907514 -0.28058678 0.17122114 -0.12472956 -0.1834635 -0.1915345 -0.12319389 0.10247768 -0.22645445 -0.02628588 0.10052893 0.16144986 0.23713267 0.3015176 0.104966834 -0.14700119 0.3110937 0.30986464 0.33930314 0.034077056 0.114858344 -0.14003164 0.118236095 -0.3100311 -0.15926434 -0.23962587 -0.28141516 0.21633814 -0.24512029 -0.08791513 0.11152656 -0.3334515 -0.26420903 0.11902687 -0.26536092 -0.08499072 -0.26653525 0.24300626 -0.13762121 -0.25359824 0.41652095 0.2917687 0.058122214 -0.38737756 -0.43026873 -0.055715732 -0.08739394 -0.024933172 -0.14128801 -0.012977811 0.023150595 0.06830015
T124 -0.2526761 0.2695198 0.35709172 -0.032547798 -0.36302555 0.46657887 0.049952514 0.09987122 -0.3301079 0.4414058 -0.47636586 0.10325446 -0.37748116 -0.23373732 -0.28970164 -0.24935606 0.0053143227 -0.4003124 -0.1700084 -0.21408537 -0.20601505 0.23998421 0.39001945 0.17577018 -0.009962937 0.1980286 0.27503085 -0.27852935 -0.005329693 0.15829743 0.5502843 0.13442796 0.29673174 -0.03755079 0.1062708 0.07864036 0.03413699 -0.10450919 -0.24389358 0.14139876 -0.43818998 0.32223368 0.28909793 -0.31510127 -0.21124835 -0.19097893 -0.52649975 -0.12999536 -0.18656129 0.30314323 0.22949392 -0.31958464 0.45871598 0.45566523 -0.09340809 -0.13559444 -0.051533673 0.19969836 0.12023209 -0.30456293 0.12133331 0.14796567 -0.022434117 -0.00085346715
L896235958944837632 -0.46435657 0.4607171 0.13705201 0.22543886 -0.11763427 0.3413994 0.49249375 0.19876282 -0.25419486 0.0069294535 -0.56357354 0.17050871 0.025647655 0.015092142 -0.21611845 -0.55352175 -0.082103394 -0.5239957 0.14928049 0.12547626 -0.043851707 -0.23473133 0.3474388 0.49868938 -0.06155182 0.24622577 -0.14097126 0.20258258 0.43396837 -0.21235733 0.5663153 0.14225492 -0.34590796 -0.5367216 -0.34856555 -0.14527681 0.20766814 -0.23214242 -0.17352735 -0.25213966 -0.525056 -0.1977132 0.23176385 -0.19552308 0.22206108 0.18444651 -0.35055 -0.43183497 -0.46562147 0.5387567 0.19732547 -0.4371254 0.57380676 0.33555815 -0.13591927 0.13581017 0.033182006 0.36469483 -0.4339231 -0.26362476 0.034676027 -0.027954724 0.14923008 0.46052885
T122 -0.14956905 0.26719627 -0.23102339 -0.13650276 -0.38435212 -0.18612207 0.011565183 -0.09285637 0.42156252 0.15643147 -0.013860609 -0.24098931 0.049764186 -0.35954586 -0.32514873 0.066171154 -0.46291733 -0.3745362 -0.26706055 -0.48420173 -0.35406774 -0.12137556 0.24083675 0.03851287 0.35863104 0.11384274 0.4047077 -0.026173117 -0.111739345 -0.20645255 0.37515426 0.14059633 -0.43225604 -0.2525174 0.18296982 -0.29838908 -0.2885443 -0.39498317 0.10782185 0.42122117 -0.124905065 -0.09453874 0.042668156 -0.13737604 -0.29337358 0.022892997 -0.038305115 -0.14222068 -0.027915893 0.2804249 -0.13264105 0.059294935 -0.14757389 0.07548539 0.14322399 -0.08248975 0.23082785 -0.23892777 -0.49608758 0.4677962 -0.20982851 -0.09356392 0.463937 0.27567825
L2154025 -0.039036486 0.46007833 -0.21205968 0.100702055 -0.48662117 -0.21839868 -0.021264099 -0.34366143 0.48691162 0.041506454 0.2120027 -0.45532736 0.16419667 -0.24490644 -0.1805585 -0.3812136 -0.25352666 -0.4859652 -0.16492344 -0.500567 -0.45292747 0.34533328 0.02335697 -0.14279321 0.23327899 -0.084388435 0.52386713 0.18795802 -0.24539281 -0.24586466 0.52684295 0.12660636 -0.46515995 -0.1487528 0.14019182 -0.44975412 -0.4650272 -0.52179855 0.005034813 0.50690037 -0.41752055 -0.06215703 0.19875333 0.391655 -0.48513415 0.13955072 0.10433754 -0.44997355 0.18280967 0.49787885 -0.45317236 -0.098875836 -0.17846835 -0.14326093 -0.050559573 0.148836 0.17926274 -0.19670223 -0.5202372 0.49403077 0.0031086623 -0.104226954 0.5095113 0.45961633
T460 0.02309858 -0.15920329 -0.0009179433 -0.16254447 0.17126775 -0.16359349 0.22572559 -0.09654865 0.48608795 0.18426183 -0.112600565 0.08407409 -0.14899018 -0.32218236 0.038084943 -0.047495764 -0.09592536 0.09020815 0.15813786 -0.5315294 -0.45370808 -0.15592752 0.105707586 0.36032128 0.15927964 0.1983852 0.17699358 0.29378748 -0.008060375 0.09482779 0.29739273 -0.11071033 -0.32718894 -0.19190621 0.10964673 -0.23215865 -0.5542555 -0.3481414 0.4073272 0.050033286 -0.09186359 -0.099265665 -0.05380635 -0.1238998 0.040722165 -0.13902171 0.1358856 0.23159978 0.11911295 0.2735331 -0.46341068 -0.026392162 -0.10919415 -0.07185387 -0.053968754 -0.32382998 0.08888977 -0.17316756 -0.4730789 0.15114637 -0.467615 -0.049082533 0.12728354 0.12826782
